tree
version=v3
num_class=1
num_tree_per_iteration=1
label_index=0
max_feature_idx=31
objective=regression
feature_names=score similarity delta_rt full_similarity score_mean score_var score_max similarity_mean similarity_var similarity_max delta_rt_mean delta_rt_var delta_rt_max full_similarity_mean full_similarity_var full_similarity_max xcorr delta_cn sp_score mass_error HLA1 HLA2 HLA3 HLA4 HLA5 HLA6 HLA7 HLA8 HLA9 HLA10 HLA11 HLA12
feature_infos=[-6.9067547786485539:26.43105633300015] [0:0.98049392143237279] [2.1000000003823519e-05:117.62463700000001] [0:0.95935759002339183] [-27.520953501367089:10.244793522275655] [0:115.80267635758425] [-23.309876691189132:24.491369333113049] [-0.88511582525049004:0.81720861980291892] [0:0.1773662882034171] [-0.81255780314472559:0.94377068539828279] [-93.248648011111115:90.846305999999998] [0:2749.0162423123888] [-77.415938699999998:107.2499444] [-0.79991132954732924:0.64692196999385565] [0:0.1271577218868995] [-0.70875953724059326:0.89414010385167619] [0:4.8788] [0:1] [0:2187.0999999999999] [-318984.40384327766:30.870863733250129] [0.000125:99.967375000000004] [0:99.760625000000005] [0:99.965625000000017] [0:99.968874999999997] [0:99.992874999999984] [0:99.903125000000003] [0:99.945499999999953] [0:99.99062499999998] [0:99.889250000000004] [0:99.90925] [0:99.930374999999984] [0:99.776375000000044]
tree_sizes=3011 3146 3128 3164 3137 3149 3139 3142 3156 3154 3152 3153 3151 3178 3135 3157 3182 3166 3202 3180 3159 3177 3191 3185 3153 3172 3174 3191 3182 3197 3182 3188 3166 3245 3181 3175 3206 3181 3137 3163 3185 3148 3149 3145 3173 3135 3098 3132 3149 3144 3034 3088 3127 3140 3056 3096 3010 3105 3180 3076 3018 2999 2930 3085 2977 3123 3109 3110 3075 3002 2917 2907 2973 2870 2980 3036 2870 3040 3049 2920 2942 2924 2831 3062 3079 3023 2930 2987 3012 2939 3021 3004 2853 2988 2882 2884 3060 3029 3090 2915

Tree=0
num_leaves=31
num_cat=0
split_feature=15 5 2 15 14 0 0 6 2 6 14 2 5 1 6 13 15 0 15 3 16 15 14 14 16 6 28 2 6 1
split_gain=117063 51341.1 20137.5 5550.67 4553.54 2519.23 2189.4 2139.21 1755.28 1206.59 1894.64 1088.76 1024.01 778.311 724.89 687.228 567.468 561.831 389.935 367.729 344.563 316.384 281.747 253.997 234.869 278.917 232.995 193.646 193.041 184.09
threshold=-0.032297420297010895 1.3180304191144721 3.4250140000000004 0.27806054597954882 0.0065142178915154007 1.3645347841631428 -1.0134157957037691 1.0000000180025095e-35 3.0306845 0.35114242636900733 0.0097199054483805506 1.3810740000000075 0.46700192211787506 0.49596516013228259 4.143084172829993 -0.21004611743922288 0.039221622284786255 1.6270960849978844 0.046577741130497959 0.47342674404264978 1.1957500000000001 0.024338661750798154 0.013508241923983252 0.013703160584579701 1.0343500000000001 0.81064454273916853 5.823374999999996 6.762859500000002 0.033266005320677257 0.50232738122212506
decision_type=2 2 2 2 2 2 2 2 2 2 2 2 2 2 2 2 2 2 2 2 2 2 2 2 2 2 2 2 2 2
left_child=2 3 6 5 14 9 15 18 -7 11 20 13 23 -2 24 29 -12 -4 -6 -18 -11 -9 -14 -5 -3 -26 -15 -19 -24 -1
right_child=1 4 17 12 7 8 -8 21 -10 10 16 -13 22 26 -16 -17 19 27 -20 -21 -22 -23 28 -25 25 -27 -28 -29 -30 -31
leaf_value=0.52624169708491864 0.50537578425095531 0.49686217395930971 0.50241340588453509 0.49369941045896193 0.5341904266454317 0.54516015836721443 0.54995617602912794 0.4740452022379455 0.50175456191687517 0.49902928052636997 0.49578274032225861 0.50085265327249739 0.47742726751830122 0.54222586858639299 0.46471512988138841 0.51453915490044488 0.48125315029574722 0.54412040807375928 0.48730850897986128 0.46385832003383526 0.49030247642981512 0.45279691422389978 0.47940695444575449 0.47982564020699614 0.50670761793489538 0.47601698131350317 0.52063562315213052 0.5113761253022201 0.45879303677664712 0.54353323611566773
leaf_weight=8963 25611 25302 127104 23692 3216 20481 436880 7143 17091 364926 17649 558353 16298 10252 14373 21748 34274 4391 3957 18830 51647 369542 5285 29786 3690 14992 9754 3068 32351 19666
leaf_count=8963 25611 25302 127104 23692 3216 20481 436880 7143 17091 364926 17649 558353 16298 10252 14373 21748 34274 4391 3957 18830 51647 369542 5285 29786 3690 14992 9754 3068 32351 19666
internal_value=0.50116 0.487429 0.538223 0.497889 0.458187 0.499956 0.54768 0.45423 0.525416 0.499079 0.495378 0.502066 0.476167 0.51692 0.484212 0.52794 0.480248 0.503979 0.508328 0.475085 0.497947 0.4532 0.466444 0.485972 0.490583 0.482079 0.531699 0.530652 0.461688 0.53812
internal_weight=0 1.6785e+06 621820 1.23628e+06 442215 1.12887e+06 487257 383858 37572 1.0913e+06 487326 603970 107412 45617 58357 50377 70753 134563 7173 53104 416573 376685 53934 53478 43984 18682 20006 7459 37636 28629
internal_count=2300315 1678495 621820 1236280 442215 1128868 487257 383858 37572 1091296 487326 603970 107412 45617 58357 50377 70753 134563 7173 53104 416573 376685 53934 53478 43984 18682 20006 7459 37636 28629
is_linear=0
shrinkage=1


Tree=1
num_leaves=31
num_cat=0
split_feature=15 5 2 15 14 2 0 6 4 14 6 6 6 15 3 0 2 16 6 1 16 1 15 15 6 16 3 6 3 2
split_gain=94855.9 41782.9 15762.2 4273.42 4117.45 2223.44 2338.49 1823.25 1706.87 1313.37 954.804 847.028 596.071 595.609 526.164 457.715 362.22 334.018 357.572 331.132 326.293 296.809 268.283 239.566 236.099 225.896 210.344 191.153 228.335 188.216
threshold=-0.034763276716057993 1.2589467268847676 3.4250140000000004 0.31124026322883086 0.007764856504465751 1.5760709999999956 0.3431950306983928 1.0000000180025095e-35 -1.0482758785912556 0.0083894667529860519 0.67928722285051668 4.3686071615377111 0.65362138210048637 0.046577741130497959 0.48676328838513561 1.6270960849978844 2.2036264999999995 1.0343500000000001 0.81064454273916853 0.40202479256897911 1.2230500000000004 0.51547945908183967 0.028949738400029606 0.0053793366252221008 0.2602279230976437 1.1957500000000001 0.37675111555828028 0.62816550922255565 0.43328095326760879 3.1584143500000041
decision_type=2 2 2 2 2 2 2 2 2 2 2 2 2 2 2 2 2 2 2 2 2 2 2 2 2 2 2 2 2 2
left_child=2 3 8 5 11 6 13 16 26 24 22 17 -5 21 -10 -4 -6 -3 -19 -8 -12 -2 29 -9 -7 -26 -1 -15 -29 -11
right_child=1 4 15 12 7 9 19 23 14 10 20 -13 -14 27 -16 -17 -18 18 -20 -21 -22 -23 -24 -25 25 -27 -28 28 -30 -31
leaf_value=0.026897687397105342 0.0043837868152927957 -0.0046670421783555904 0.0012612209529667968 -0.015950110974263385 0.031817912805324144 0.00058980429365366007 0.011412426538370643 -0.019903758249537492 0.01249014641979946 0.024516435674059464 -0.014834820087838105 -0.037055107798271938 -0.033538762249922228 0.00067933642832338945 0.033442471038620844 0.026966734561903283 -0.013060494479795707 0.0039492639773344588 -0.025075712963703659 0.041064317718962157 -0.029585546712112165 0.021968828105374389 -0.0068713265997754572 -0.043678265345395449 -0.0018687518767562064 -0.0093666352112991604 0.044259328330048649 -0.0066357932104423078 -0.033832959143817787 0.00083018225662823792
leaf_weight=7094 21535 32551 122258 35828 3277 468121 4435 4288 21402 4275 46855 16588 41686 22430 27241 7343 3986 5231 22505 24972 22055 17316 93296 366492 352300 45355 427747 12127 4141 15585
leaf_count=7094 21535 32551 122258 35828 3277 468121 4435 4288 21402 4275 46855 16588 41686 22430 27241 7343 3986 5231 22505 24972 22055 17316 93296 366492 352300 45355 427747 12127 4141 15585
internal_value=0 -0.0122409 0.0336872 -0.00267952 -0.0381412 -0.00115384 0.0125804 -0.0424313 0.0419888 -0.00255573 -0.010276 -0.017044 -0.0254091 0.00347496 0.0242238 0.00271766 0.00718824 -0.0115379 -0.0196016 0.0365924 -0.0195559 0.0122215 -0.00462478 -0.0434033 -0.00093221 -0.00272393 0.0439761 -0.00530614 -0.0135588 0.00592881
internal_weight=0 1.68723e+06 613085 1.23231e+06 454918 1.1548e+06 106956 378043 483484 1.04784e+06 182066 76875 77514 77549 48643 129601 7263 60287 27736 29407 68910 38851 113156 370780 865776 397655 434841 38698 16268 19860
internal_count=2300315 1687230 613085 1232312 454918 1154798 106956 378043 483484 1047842 182066 76875 77514 77549 48643 129601 7263 60287 27736 29407 68910 38851 113156 370780 865776 397655 434841 38698 16268 19860
is_linear=0
shrinkage=0.1


Tree=2
num_leaves=31
num_cat=0
split_feature=15 5 2 15 14 0 6 0 14 6 2 0 2 1 6 6 15 6 2 16 1 15 2 6 15 14 5 13 18 19
split_gain=76957.6 33309.9 14582.2 3363.99 3253.17 1481.38 1450.57 1388.35 1072.13 1108.2 814.674 611.819 607.568 578.337 422.455 401.085 395.12 373.598 384.13 355.69 347.272 321.644 303.423 295.035 288.428 262.885 239.277 223.182 191.607 176.063
threshold=-0.025079981197950647 1.2589467268847676 3.0306845 0.33309034616222871 0.0058207301252734501 -0.79072493794696574 1.0000000180025095e-35 1.7175839506166544 0.012037777829933103 0.42525267539018641 4.1786410000000034 1.2783388312261359 2.1187069999999903 0.50232738122212506 0.32850406697203577 4.3686071615377111 0.079176504196165856 0.2602279230976437 1.3363305000000063 1.2947500000000003 0.49596516013228259 0.019615984311109506 6.762859500000002 4.143084172829993 0.067138024436903615 0.012387916315565302 0.75556559198196893 -0.27392543146973253 77.450000000000017 -9.9043820846574384
decision_type=2 2 2 2 2 2 2 2 2 2 2 2 2 2 2 2 2 2 2 2 2 2 2 2 2 2 2 2 2 2
left_child=2 3 5 7 15 13 24 8 17 12 -9 -4 16 27 -5 28 -10 18 20 -19 -2 -11 -13 25 -6 -8 -23 -1 -3 -15
right_child=1 4 11 14 6 -7 23 10 9 21 -12 22 -14 29 -16 -17 -18 19 -20 -21 -22 26 -24 -25 -26 -27 -28 -29 -30 -31
leaf_value=0.029117115726784538 0.0034534925705091424 -0.0044869837272465398 0.0010171343711628993 -0.014813187620465677 0.024686543125604664 0.039709664611534308 -0.026350585226735546 0.036580001630095282 0.028640001314834393 -0.0018335340328541 -4.271001209319075e-05 0.037101822541272943 -0.0070206537721747772 0.0041907468606989058 -0.031842725433955506 -0.030594881274383423 -0.0061372255165007125 -0.0021463594680427652 0.00016810830234663071 -0.011765711299828632 0.024672831558148003 -0.018113770715255131 0.0040827175152597884 -0.040381365929673146 -0.013544620854059473 -0.037289458104809103 -0.032193685085577455 0.0056401355455222828 -0.019733459484948153 0.032979954506609496
leaf_weight=5170 20881 35180 146358 23373 3755 432683 30391 14954 9196 7613 10229 7377 51845 2277 38665 9537 5067 415444 498288 42359 12230 29361 4469 278564 4159 79283 20495 18679 10765 31668
leaf_count=5170 20881 35180 146358 23373 3755 432683 30391 14954 9196 7613 10229 7377 51845 2277 38665 9537 5067 415444 498288 42359 12230 29361 4469 278564 4159 79283 20495 18679 10765 31668
internal_value=0 -0.0114628 0.0291859 -0.00275051 -0.0346115 0.0377011 -0.0377877 -0.00151427 -0.00203973 -0.0108217 0.0217043 0.00278635 -0.00199234 0.0226639 -0.0254268 -0.011933 0.0162852 -0.000942627 0.000861175 -0.00303641 0.0112911 -0.0209784 0.0246451 -0.0386516 0.00459513 -0.0342583 -0.0239018 0.0107295 -0.00805926 0.0310488
internal_weight=0 1.65163e+06 648681 1.2e+06 451634 490477 396152 1.13796e+06 1.11278e+06 123577 25183 158204 66108 57794 62038 55482 14263 989202 531399 457803 33111 57469 11846 388238 7914 109674 49856 23849 45945 33945
internal_count=2300315 1651634 648681 1200000 451634 490477 396152 1137962 1112779 123577 25183 158204 66108 57794 62038 55482 14263 989202 531399 457803 33111 57469 11846 388238 7914 109674 49856 23849 45945 33945
is_linear=0
shrinkage=0.1


Tree=3
num_leaves=31
num_cat=0
split_feature=15 5 2 15 15 0 2 4 5 5 3 15 6 3 14 2 9 13 3 15 4 3 3 15 14 3 3 1 9 1
split_gain=62351.7 27612.4 10006.6 3512.44 2119.88 1643.89 1444.65 1259.17 921.418 708.143 863.473 706.798 657.81 644.074 551.331 408.405 386.358 348.211 322.346 304.843 261.418 244.724 203.161 234.297 197.557 197.094 189.161 175.131 174.339 172.705
threshold=-0.03722939070801639 1.4205107898747873 4.0180958500000008 0.25475876559067967 0.098771277515296366 0.97418558744833816 2.9087490000000042 -0.68091852388526808 0.63079848480814771 0.67129531670736931 0.354881408526806 0.040785257518894807 -1.0000000180025095e-35 0.38010872011210495 0.0054711871000321507 1.2495319999999988 0.027500206382016553 -0.27899551093987501 0.24119415373775932 0.41176731337887701 -1.0842972669122113 0.42238321685151342 0.18534443764096428 0.39713933829606224 0.0064332474910853508 0.71806409873033628 0.19985916657770966 0.38608025283355002 0.0063306661768693512 0.50881515476797723
decision_type=2 2 2 2 2 2 2 2 2 2 2 2 2 2 2 2 2 2 2 2 2 2 2 2 2 2 2 2 2 2
left_child=2 3 7 5 12 9 27 21 18 15 -11 28 -3 -14 26 16 20 -9 19 -5 -2 -1 23 -10 -17 -4 -6 -7 -12 -19
right_child=1 4 25 8 14 6 -8 17 22 10 11 -13 13 -15 -16 24 -18 29 -20 -21 -22 -23 -24 -25 -26 -27 -28 -29 -30 -31
leaf_value=0.023091636661454053 0.030992366096734659 0.020132191959807158 0.00063224691492087121 -0.0039968250209985118 -0.0094984879067462995 0.010937129995140439 0.00022979742307415444 0.030014378941300265 -0.010850350103171489 -0.0028566553934508319 0.0095476399027463136 -0.027492272196571518 -0.0048252888247696073 -0.02798351166895327 -0.035484505736670231 -8.9290885072117396e-05 0.00084011072626705846 0.0031730445473988214 -0.021536737855277696 -0.021415850996646127 0.0094363510907493186 0.035870370716415904 -0.03257285797816438 -0.031752281863376461 -0.0039090234253031314 0.024293456313336417 -0.029671674711638774 0.034879278547392964 -0.010067986897136273 0.019441690741526303
leaf_weight=15526 9017 5305 113639 51685 11005 3483 29128 13446 12128 134053 6742 31363 22900 25253 352065 661175 32785 14976 21477 12471 14960 431307 32606 9614 170273 3633 8047 24873 13816 11564
leaf_count=15526 9017 5305 113639 51685 11005 3483 29128 13446 12128 134053 6742 31363 22900 25253 352065 661175 32785 14976 21477 12471 14960 431307 32606 9614 170273 3633 8047 24873 13816 11564
internal_value=0 -0.00982517 0.027588 -0.00245285 -0.0319061 -0.000604454 0.0158712 0.033905 -0.0173961 -0.00148613 -0.0070973 -0.0180461 -0.0132883 -0.0169702 -0.0345879 -0.000311265 0.00789558 0.0169038 -0.0109327 -0.00738283 0.0175429 0.0354264 -0.0275802 -0.0200929 -0.000871537 0.00136525 -0.018019 0.0319384 -0.00363504 0.0102616
internal_weight=0 1.69622e+06 604091 1.27165e+06 424575 1.13167e+06 57484 486819 139981 1.07418e+06 185974 51921 53458 48153 371117 888210 56762 39986 85633 64156 23977 446833 54348 21742 831448 117272 19052 28356 20558 26540
internal_count=2300315 1696224 604091 1271649 424575 1131668 57484 486819 139981 1074184 185974 51921 53458 48153 371117 888210 56762 39986 85633 64156 23977 446833 54348 21742 831448 117272 19052 28356 20558 26540
is_linear=0
shrinkage=0.1


Tree=4
num_leaves=31
num_cat=0
split_feature=15 5 2 14 15 4 6 14 2 6 1 6 2 0 13 5 6 16 6 3 0 2 25 3 15 6 3 15 16 15
split_gain=50658.3 21662 10635.4 2430.88 2029.02 1051.71 800.858 1163.77 1002.2 775.411 628.059 573.097 482.586 410.591 375.548 356.449 254.085 241.421 215.572 186.784 185.079 184.818 175.148 169.906 132.125 125.267 124.477 192.323 122.242 121.281
threshold=-0.018227580696234095 1.1827196069134369 2.9087490000000042 0.0083894667529860519 0.34605667223643699 -0.96000520211397589 1.0000000180025095e-35 0.0083894667529860519 1.6926554999999956 1.0000000180025095e-35 0.49921614398909203 4.143084172829993 5.1452845000000016 -0.25075114815255323 -0.18170519298848545 0.63079848480814771 0.11369915605508267 1.0837500000000004 0.70498163820694815 0.4447409345047228 -0.52176116117507465 2.4767754999999956 23.363625000000003 0.3577718339054996 0.031917767828672658 2.6787291487880847 0.27032997034313166 0.093834228945577455 0.82135000000000014 0.049631391978229557
decision_type=2 2 2 2 2 2 2 2 2 2 2 2 2 2 2 2 2 2 2 2 2 2 2 2 2 2 2 2 2 2
left_child=2 4 5 11 6 23 8 19 10 21 -2 17 13 -4 22 29 -6 -3 -19 -8 -12 -5 -7 -1 -21 -11 -17 -28 -13 -9
right_child=1 3 12 9 16 14 7 15 -10 25 20 28 -14 -15 -16 26 -18 18 -20 24 -22 -23 -24 -25 -26 -27 27 -29 -30 -31
leaf_value=0.01694972423912975 0.0040660785933796604 -0.0030533498588722809 0.0042537485915785352 0.021382875435261264 -0.011590756614770973 0.028198255599268529 -0.0012812815691581455 -0.00069408327517975731 0.00012183752263903571 -0.026636125706914121 0.010671148854779305 -0.010430762470007772 -0.00029760699127433585 0.027688495203792858 0.0057874945804818707 -0.0097084337110099461 -0.02635139917077417 0.0022691248734396335 -0.019617675635983517 -0.0026037610074689365 0.031128089964264055 -0.011910351571260077 0.011410011534349503 0.032341452683444565 -0.022606298519976118 -0.032515212468204879 -0.012917127400107451 -0.028230381805147444 -0.030298809103237418 -0.010525539912129621
leaf_weight=7291 25860 38349 19282 2880 17472 22657 470070 16005 453162 40706 5768 3737 147329 12211 19086 9742 35069 5623 22536 6170 18960 3960 8563 439064 7105 330503 13121 21875 18076 58083
leaf_count=7291 25860 38349 19282 2880 17472 22657 470070 16005 453162 40706 5768 3737 147329 12211 19086 9742 35069 5623 22536 6170 18960 3960 8563 439064 7105 330503 13121 21875 18076 58083
internal_value=0 -0.0095683 0.0230159 -0.0277662 -0.00224226 0.0305452 -0.00133006 -0.00379135 0.00161211 -0.0312558 0.0149618 -0.0128293 0.00210421 0.0133403 0.016838 -0.0126577 -0.0214429 -0.00821612 -0.0152472 -0.00161163 0.0263563 0.00210785 0.0235936 0.03209 -0.0133095 -0.0318705 -0.019706 -0.022489 -0.026895 -0.00840168
internal_weight=0 1.62483e+06 675483 466370 1.15846e+06 496661 1.10592e+06 602171 503750 378049 50588 88321 178822 31493 50306 118826 52541 66508 28159 483345 24728 6840 31220 446355 13275 371209 44738 34996 21813 74088
internal_count=2300315 1624832 675483 466370 1158462 496661 1105921 602171 503750 378049 50588 88321 178822 31493 50306 118826 52541 66508 28159 483345 24728 6840 31220 446355 13275 371209 44738 34996 21813 74088
is_linear=0
shrinkage=0.1


Tree=5
num_leaves=31
num_cat=0
split_feature=15 6 2 15 14 2 6 0 3 14 15 15 1 6 1 18 6 28 6 18 15 3 16 14 16 28 2 2 9 5
split_gain=41110.7 18741.7 5551.39 2477.21 2134.94 1701.85 1357.81 712.297 667.475 646.934 471.551 458.785 453.494 420.824 382.035 286.832 274.236 248.994 195.333 362.733 187.27 185.308 154.775 150.712 164.184 142.98 122.368 121.564 121.066 118.257
threshold=-0.048051116016353944 2.8075488721210644 4.6543273370000025 0.25475876559067967 0.0049446109742851008 1.6349054999999988 -0.49401850544960935 -0.74431264610867609 0.19985916657770966 0.013703160584579701 0.028949738400029606 0.44422679518707686 0.38608025283355002 0.75890852612543769 0.50232738122212506 79.450000000000017 0.11369915605508267 5.1344999999999965 1.0000000180025095e-35 141.35000000000005 0.010306201755995651 0.48250246001549585 0.93335000000000012 0.0098449013428965008 0.87115000000000009 6.0937499999999973 1.9574770000000012 3.0306845 -0.011317024444405898 0.62350336707577114
decision_type=2 2 2 2 2 2 2 2 2 2 2 2 2 2 2 2 2 2 2 2 2 2 2 2 2 2 2 2 2 2
left_child=2 3 7 5 15 6 12 14 11 18 17 -5 -2 20 25 -3 -10 -8 27 -20 -11 -12 -15 24 -6 -1 -16 28 -7 -21
right_child=1 4 -4 8 23 9 10 -9 16 13 21 -13 -14 22 26 -17 -18 -19 19 29 -22 -23 -24 -25 -26 -27 -28 -29 -30 -31
leaf_value=0.018510481632440207 0.0042231462565877594 -0.0037280940568958868 0.00093755469079784379 -0.003958714919648023 -0.010343645058381715 0.021852298684567714 0.022609215329145942 0.02912913451857102 -0.011760950263570085 0.0088562036983216002 -0.0015942671541015491 -0.023150957693796024 0.027671614876782692 -0.006540465621345107 0.027556633795829739 -0.024568535024796685 -0.025829613401225721 0.0047781417565420274 -0.0015360057471065823 -0.0066833205161151476 -0.0072755860980686128 -0.017967801927754903 -0.022620046099086126 -0.029370823638244059 -0.026109789639276178 0.0016725172361052162 0.013185652137548874 0.00027914673653384533 0.004048691811332542 -0.019281395948460317
leaf_weight=7490 10273 43537 92409 61170 8249 4784 11701 419859 19832 9050 33295 15640 41840 7819 24374 7785 45976 23680 492750 15110 35131 8723 25538 328476 33144 15437 7828 415770 18945 14700
leaf_count=7490 10273 43537 92409 61170 8249 4784 11701 419859 19832 9050 33295 15640 41840 7819 24374 7785 45976 23680 492750 15110 35131 8723 25538 328476 33144 15437 7828 415770 18945 14700
internal_value=0 -0.00764959 0.023363 -0.00175663 -0.0260022 -0.000238812 0.0105708 0.0277259 -0.0141989 -0.00158546 0.00216905 -0.00786663 0.0230492 -0.0103725 0.017039 -0.00688937 -0.0215899 0.0106751 -0.000877268 -0.00218403 -0.00397116 -0.00499344 -0.0188509 -0.0286542 -0.0229678 0.0071733 0.0240632 0.000676463 0.00763807 -0.0128957
internal_weight=0 1.73292e+06 567397 1.31173e+06 421191 1.16911e+06 129512 474988 142618 1.0396e+06 77399 76810 52113 77538 55129 51322 65808 35381 962059 522560 44181 42018 33357 369869 41393 22927 32202 439499 23729 29810
internal_count=2300315 1732918 567397 1311727 421191 1169109 129512 474988 142618 1039597 77399 76810 52113 77538 55129 51322 65808 35381 962059 522560 44181 42018 33357 369869 41393 22927 32202 439499 23729 29810
is_linear=0
shrinkage=0.1


Tree=6
num_leaves=31
num_cat=0
split_feature=15 5 2 14 15 4 6 0 14 6 3 4 2 2 15 6 6 3 5 6 16 14 2 28 28 2 3 15 15 3
split_gain=33384 14309.8 7207.19 1671.88 1315.12 732.793 629.066 509.263 536.562 447.095 385.054 361.486 260.646 249.161 220.903 213.387 190.583 298.647 184.035 176.511 165.625 161.832 153.223 267.62 147.672 142.18 135.254 132.037 131.889 131.262
threshold=-0.016125634895881046 1.1600727357735268 2.9087490000000042 0.0056824455221984507 0.34605667223643699 -1.5515208572397416 1.0000000180025095e-35 1.9071759891273501 0.014304901553699652 0.13461052596535203 0.46062822097798156 -2.5767820852347394 3.4250140000000004 6.762859500000002 0.079176504196165856 4.4895488161712249 0.47458067975657842 0.50938704544099733 2.3029165682422867 0.32850406697203577 1.07345 0.010815352132205252 1.6926554999999956 3.3413124999999986 4.268374999999998 2.5751474500000047 0.28220777399471103 0.045142154063260657 0.14299955482677276 0.26816785894244971
decision_type=2 2 2 2 2 2 2 2 2 2 2 2 2 2 2 2 2 2 2 2 2 2 2 2 2 2 2 2 2 2
left_child=2 4 5 15 7 -1 27 8 16 14 24 13 -9 -4 25 26 22 20 21 -6 -18 -8 23 -2 -7 -10 -3 -5 -22 -30
right_child=1 3 11 6 19 10 18 12 9 -11 -12 -13 -14 -15 -16 -17 17 -19 -20 -21 28 -23 -24 -25 -26 -27 -28 -29 29 -31
leaf_value=0.026319939670516074 0.020972597149023858 -0.0022650383098139072 0.024447242915903358 0.018195561796944908 -0.010063291980234257 0.018723979392806105 -0.014942178945861704 0.025721492632102733 0.020576390180556476 -0.015424484144925744 0.021031857127575465 4.6205059881382875e-05 0.0014896761267906965 0.0027581687747638512 -0.0063998031990290336 -0.022090321571728012 -0.00089971482556750056 -0.019450951410319384 -0.026690579766096234 -0.022061486183118092 -0.0028496519468767679 -0.024041492875357465 5.3104930523196643e-06 0.0020375703551071002 0.0015238881284806013 0.00010612864608954037 -0.014553166612419205 -0.0074219814608661398 -0.0065676510222667933 -0.020727018969296546
leaf_weight=428120 9530 42213 10916 3106 20053 6662 25783 10543 6095 47395 44791 163543 7667 10289 26912 8315 310120 9980 294057 31557 47876 80793 545734 34435 19907 7654 11370 5712 19271 9916
leaf_count=428120 9530 42213 10916 3106 20053 6662 25783 10543 6095 47395 44791 163543 7667 10289 26912 8315 310120 9980 294057 31557 47876 80793 545734 34435 19907 7654 11370 5712 19271 9916
internal_value=0 -0.00783869 0.0185143 -0.0225031 -0.00180056 0.0247562 -0.0248188 -0.00106408 -0.00134502 -0.00882449 0.0153743 0.001639 0.0155191 0.0139234 -0.00113146 -0.00718544 -0.000677636 -0.00237098 -0.0254003 -0.0173996 -0.00193072 -0.0218402 0.000462831 0.00614199 0.0058367 0.0091807 -0.00487251 0.00160139 -0.00607976 -0.0113782
internal_weight=0 1.61609e+06 684228 471349 1.14474e+06 499480 409451 1.09313e+06 1.07492e+06 88056 71360 184748 18210 21205 40661 61898 986862 397163 400633 51610 387183 106576 589699 43965 26569 13749 53583 8818 77063 29187
internal_count=2300315 1616087 684228 471349 1144738 499480 409451 1093128 1074918 88056 71360 184748 18210 21205 40661 61898 986862 397163 400633 51610 387183 106576 589699 43965 26569 13749 53583 8818 77063 29187
is_linear=0
shrinkage=0.1


Tree=7
num_leaves=31
num_cat=0
split_feature=15 5 2 14 14 4 6 6 13 15 6 3 6 16 15 2 1 2 5 3 5 14 3 15 15 1 2 19 0 6
split_gain=27102.2 11365 6620.25 1317.73 1129.83 676.895 676.859 434.094 395.407 306.142 249.809 215.849 198.429 294.098 193.155 178.129 229.98 164.005 163.231 155.777 147.618 131.285 128.046 139.751 120.478 113.037 97.2706 96.0719 91.7405 87.9873
threshold=-0.0057134535319182484 1.1600727357735268 2.6839135000000032 0.0048804604962416507 0.01410432029031035 -0.29281356780771267 0.11369915605508267 0.033266005320677257 -0.28941206153091847 0.10912878935985292 -0.28953569841795707 0.36708843634232269 0.49957599099317263 1.1536500000000001 -0.12551990015441514 1.2495319999999988 0.50545473248386663 2.5751474500000047 2.0138041136491096 0.28455348396073848 0.39069350640881345 0.010815352132205252 0.50938704544099733 0.13399341708015652 0.19628031171576607 0.46182608221301807 1.2913004999999986 8.7420256800740255 -0.36810333501019604 1.0000000180025095e-35
decision_type=2 2 2 2 2 2 2 2 2 2 2 2 2 2 2 2 2 2 2 2 2 2 2 2 2 2 2 2 2 2
left_child=2 4 5 19 12 11 9 26 10 17 -4 25 15 -14 -7 16 -2 -6 21 24 -8 -9 23 -15 -3 -1 -5 -13 -18 -10
right_child=1 3 8 7 6 14 20 18 29 -11 -12 27 13 22 -16 -17 28 -19 -20 -21 -22 -23 -24 -25 -26 -27 -28 -29 -30 -31
leaf_value=0.0016992761994387047 0.00096479470522799259 -0.00071408329496135039 0.02303937035208059 0.017845611436286497 0.018597310221470809 0.020878717880177824 -0.009846136691840833 -0.012818446961731159 0.0026723587230353236 -0.0072943211568648643 0.0036595671938911473 0.023695154087647226 -0.001240824708683308 -0.0025992271863209495 0.0039641158018282573 2.4588208591661118e-05 0.0077391776657639135 -0.00055706905986483042 -0.023872116719567925 -0.01698238798932589 -0.01965116556536893 -0.021452794565751547 -0.022168506415968452 -0.012665083688216047 -0.016537809701650887 0.020149168694260613 -0.0064840603772431879 -0.00081364626546515106 0.024306862943598795 -0.0016410122621811085
leaf_weight=6820 22019 36553 12910 2161 8435 9309 21599 24758 78498 39671 13720 456878 321545 30022 24571 552219 5708 9510 320408 9486 53112 60993 6393 25515 5541 6472 6859 1605 8064 118961
leaf_count=6820 22019 36553 12910 2161 8435 9309 21599 24758 78498 39671 13720 456878 321545 30022 24571 552219 5708 9510 320408 9486 53112 60993 6393 25515 5541 6472 6859 1605 8064 118961
internal_value=0 -0.00739887 0.015924 -0.0204804 -0.00186722 0.0222647 -0.0105359 -0.0223531 0.00161635 -0.00239174 0.0130547 0.0232452 -0.000686454 -0.00245619 0.00861164 0.000467692 0.00730434 0.0084464 -0.022835 -0.00540583 -0.0168165 -0.0189599 -0.00876646 -0.00722372 -0.00279702 0.0106827 -0.000655189 0.0236094 0.0174402 7.37285e-05
internal_weight=0 1.57057e+06 729744 466759 1.10381e+06 505655 132327 415179 224089 57616 26630 471775 971485 383475 33880 588010 35791 17945 406159 51580 74711 85751 61930 55537 42094 13292 9020 458483 13772 197459
internal_count=2300315 1570571 729744 466759 1103812 505655 132327 415179 224089 57616 26630 471775 971485 383475 33880 588010 35791 17945 406159 51580 74711 85751 61930 55537 42094 13292 9020 458483 13772 197459
is_linear=0
shrinkage=0.1


Tree=8
num_leaves=31
num_cat=0
split_feature=15 6 2 14 15 2 9 3 3 15 3 15 16 14 6 18 2 1 9 0 8 15 5 3 31 15 4 8 3 2
split_gain=21991.3 10237.3 2992.72 1483.8 1239.33 1000.01 636 612.255 398.273 352.434 274.201 233.128 227.702 227.167 292.447 272.59 197.322 192.356 177.409 143.003 140.29 136.602 123.811 118.972 118.388 107.581 94.7374 87.5916 82.2065 80.864
threshold=-0.048051116016353944 2.5580209193070931 4.8110025000000016 0.0048230032099698507 0.2224686663565951 1.3363305000000063 0.027500206382016553 0.23283611995506745 0.45647671916959537 0.41919095816862156 0.28690787371213672 0.016564076689094803 1.1177500000000002 0.0063522773156155007 -0.026160377254484796 162.05000000000004 3.8553210000000075 0.44468488177127702 0.075640068377991518 -0.13539510239078126 0.036032817963409812 0.07153790896337256 0.2289496003128608 0.45231635923576641 18.040250000000007 0.0070652812872581509 -1.0000000180025095e-35 0.025933093604210405 0.71278114290490946 2.0341004999999979
decision_type=2 2 2 2 2 2 2 2 2 2 2 2 2 2 2 2 2 2 2 2 2 2 2 2 2 2 2 2 2 2
left_child=2 4 8 12 5 6 10 9 17 27 -2 19 -3 -7 16 20 18 -1 -15 -8 -16 23 -9 -5 -12 -17 -10 -6 -4 -19
right_child=1 3 28 21 7 13 11 22 26 -11 24 -13 -14 14 15 25 -18 29 -20 -21 -22 -23 -24 -25 -26 -27 -28 -29 -30 -31
leaf_value=0.001033879422011986 0.0018137864314938909 -0.0015359120072024864 -1.9176331260954154e-05 -0.0041757678197687073 0.00031649897952223602 7.0408135587301295e-05 0.0027527669794214804 -0.0075706826578347463 0.021326693707326816 -0.01634537719260426 0.022608067895763272 -0.0036100510956086915 -0.016825263943147224 0.019897669039134758 -0.0023959326933044875 -0.00095575895698994423 -0.0012968216822396897 0.019574153522968821 -0.0012485280477729829 0.019658978439864944 -0.010159923551004577 -0.02130370600224081 -0.018964476102012344 -0.019230471420085649 0.0091887582705036421 -0.020151133449967371 0.011936110298942336 -0.0057398943910883958 0.017802939166588077 0.0054727934983217277
leaf_weight=14111 9856 51922 88619 8798 60804 762864 11697 11801 429332 20877 37061 32951 11990 9315 84140 3507 73257 16223 6911 8743 32172 366769 49717 13014 7992 17436 11019 39324 2666 5427
leaf_count=14111 9856 51922 88619 8798 60804 762864 11697 11801 429332 20877 37061 32951 11990 9315 84140 3507 73257 16223 6911 8743 32172 366769 49717 13014 7992 17436 11019 39324 2666 5427
internal_value=0 -0.00559482 0.0170874 -0.0185241 -0.0010257 0.000242805 0.00936578 -0.00865596 0.0202675 -0.00452637 0.0169224 0.00159433 -0.00440422 -0.000755594 -0.00353469 -0.00643449 0.000913212 0.0101183 0.0108911 0.00998423 -0.00454346 -0.0208465 -0.0167788 -0.0131581 0.0202276 -0.0169368 0.0210917 -0.00206207 0.000501323 0.0160394
internal_weight=0 1.73292e+06 567397 452493 1.28042e+06 1.0979e+06 108300 182523 476112 121005 54909 53391 63912 989602 226738 137255 89483 35761 16226 20440 116312 388581 61518 21812 45053 20943 440351 100128 91285 21650
internal_count=2300315 1732918 567397 452493 1280425 1097902 108300 182523 476112 121005 54909 53391 63912 989602 226738 137255 89483 35761 16226 20440 116312 388581 61518 21812 45053 20943 440351 100128 91285 21650
is_linear=0
shrinkage=0.1


Tree=9
num_leaves=31
num_cat=0
split_feature=15 5 2 14 14 4 6 13 16 6 1 6 15 14 6 15 2 3 19 18 15 15 31 2 16 3 2 15 6 31
split_gain=17890.2 7507.99 4463.56 1045.43 666.724 467.653 386.316 281.552 249.504 249.489 177.896 177.233 157.046 156.807 195.882 151.897 172.994 136.934 128.214 110.509 100.987 98.1283 90.9847 88.0693 84.8655 83.9683 81.3947 81.0756 76.8628 72.3759
threshold=-0.0036741035849800993 1.0751518146280106 2.6839135000000032 0.0073835321557729509 0.016602583488627806 -0.55542800306363282 -1.0000000180025095e-35 -0.33559104134290257 0.82135000000000014 -0.33028232241044225 0.57098810414833967 3.5849463773260117 0.10912878935985292 0.0062707626673709016 2.1014062806457408 0.070093537349545362 2.3774909999999854 0.33402391907017498 7.2531266541741308 308.45000000000005 0.16461707110899429 0.11087220933649251 15.658750000000003 7.5384540000000024 0.49675000000000008 0.59527576154982875 2.3774909999999854 -0.12988491435963773 4.3686071615377111 19.550250000000009
decision_type=2 2 2 2 2 2 2 2 2 2 2 2 2 2 2 2 2 2 2 2 2 2 2 2 2 2 2 2 2 2
left_child=2 4 5 8 13 18 12 23 -3 -5 27 -10 26 -2 15 16 22 -17 -1 28 -19 25 -15 -4 -11 -8 -6 -7 -9 -12
right_child=1 3 7 9 6 10 21 19 11 24 29 -13 -14 14 -16 17 -18 20 -20 -21 -22 -23 -24 -25 -26 -27 -28 -29 -30 -31
leaf_value=0.019118243419268384 0.00012455695054109996 0.00039943595190452858 0.019853850634188354 0.0044669242987423214 0.017586246493314778 0.013923192191447345 0.00037948114658469586 0.00022818086127360384 -0.0060215441241506596 0.0018402059294332234 0.019502812322305357 -0.017601042831975423 -0.0053301786487428351 0.017664218490465407 -0.013058370254118316 -0.0020056027990837865 -0.0007542903055765606 -0.0056873841109426216 -0.0010808004534952861 0.014049351117820129 -0.017649373748807384 -0.016052534279604666 -0.00030913326956736491 0.0038969301904543197 -0.018899215259438717 -0.015958597269427787 0.00022047422000017215 -0.00016365436318433661 -0.015406400030621756 0.004588902193732443
leaf_weight=461988 734832 32902 10086 4665 5527 5124 7705 206770 33442 1983 13149 21857 24922 9658 17331 137161 37004 25586 3164 5744 9746 49235 3976 5264 393224 5316 5275 20162 3193 4324
leaf_count=461988 734832 32902 10086 4665 5527 5124 7705 206770 33442 1983 13149 21857 24922 9658 17331 137161 37004 25586 3164 5744 9746 49235 3976 5264 393224 5316 5275 20162 3193 4324
internal_value=0 -0.00606704 0.0128189 -0.0163502 -0.00139077 0.0180609 -0.00925429 0.00129599 -0.0064958 -0.0185238 0.00805275 -0.0105984 -0.00096508 -0.000600788 -0.00281738 -0.00202194 0.00279356 -0.00343561 0.0189808 0.00036479 -0.00898699 -0.0140108 0.0124228 0.0143817 -0.0187952 -0.00629076 0.00910592 0.00269093 -9.58111e-06 0.0158121
internal_weight=0 1.56135e+06 738968 488073 1.07327e+06 507911 97980 231057 88201 399872 42759 55299 35724 975294 240462 223131 50638 172493 465152 215707 35332 62256 13634 15350 395207 13021 10802 25286 209963 17473
internal_count=2300315 1561347 738968 488073 1073274 507911 97980 231057 88201 399872 42759 55299 35724 975294 240462 223131 50638 172493 465152 215707 35332 62256 13634 15350 395207 13021 10802 25286 209963 17473
is_linear=0
shrinkage=0.1


Tree=10
num_leaves=31
num_cat=0
split_feature=15 5 2 14 0 6 1 14 9 6 16 31 6 2 2 28 18 13 16 19 0 3 15 6 19 7 5 3 0 15
split_gain=14491 6093.21 3626.47 1018.93 607.065 570.674 310.085 290.837 269.319 196.084 338.003 162.366 130.015 123.34 112.413 168.874 105.013 98.0536 91.959 90.5645 79.9131 76.4384 145.114 75.1216 69.4206 68.5646 67.4757 74.4008 66.3655 65.2735
threshold=-0.0036741035849800993 1.6276516980766715 4.0180958500000008 0.013703160584579701 -0.39540910386669564 1.0621722669294942 0.47574996071282105 0.0035897298687335506 -0.0022838870740913993 1.5096922983874623 1.0837500000000004 18.761250000000008 -0.33028232241044225 2.3774909999999854 1.173692999999995 3.3413124999999986 92.250000000000014 -0.31981472098707037 0.52965000000000007 -9.6806904791618216 2.2210157243054556 0.24993420901089711 0.12741213889445713 -1.1859310478757774 2.4621413085719461 -0.10681024735922338 1.4598877997556268 0.50480241310866991 0.76679430007533134 -0.12130864370792849
decision_type=2 2 2 2 2 2 2 2 2 2 2 2 2 2 2 2 2 2 2 2 2 2 2 2 2 2 2 2 2 2
left_child=2 3 4 9 6 8 17 -3 13 14 -11 19 -9 -5 15 25 -12 -1 -14 -8 26 -16 -23 -10 -21 -2 -4 -28 -17 -13
right_child=1 7 20 5 -6 -7 11 12 23 10 16 29 18 -15 21 28 -18 -19 -20 24 -22 22 -24 -25 -26 -27 27 -29 -30 -31
leaf_value=0.016145751623981432 0.021459382391286835 -0.0038558072440716394 0.00033140585866520285 0.019586559188729206 0.017391150403367552 -0.015741358655146663 -0.0014183393945553207 0.0074901008453833809 0.0017042657547252584 -0.0012299780611347219 -0.0064334576275417504 0.013903489651195915 0.0024060631309593076 -9.1408276632977352e-05 0.00035467876941184205 -0.00030937001089159752 -0.01580584691222639 -0.00053199812067909909 -0.017274035662163158 0.018736306143194308 0.012943379863049026 -0.0006006200588514664 -0.0073654506896897731 -0.0072530934393498963 0.0035518228935098786 0.0043790108363745304 -0.002682838953072302 -0.019922898541592363 0.013378006256306949 -0.00036872328760532237
leaf_weight=3957 7209 17644 184837 6235 442730 73082 2710 2155 10768 163910 25873 4674 2390 6512 551587 28364 22223 32308 361946 36320 4765 162787 39381 71746 3283 3487 9834 3358 4048 10192
leaf_count=3957 7209 17644 184837 6235 442730 73082 2710 2155 10768 163910 25873 4674 2390 6512 551587 28364 22223 32308 361946 36320 4765 162787 39381 71746 3283 3487 9834 3358 4048 10192
internal_value=0 -0.00546034 0.011537 -0.00189182 0.0158453 -0.009094 0.00852112 -0.0163963 -0.00399431 -0.000690038 -0.00339288 0.0131088 -0.0170001 0.00953377 2.90561e-05 0.00499558 -0.010764 0.00128777 -0.0171449 0.0162673 0.000146193 -0.000254984 -0.00191836 -0.00608417 0.0174775 0.015891 -0.000161734 -0.00707127 0.00140007 0.00411858
internal_weight=0 1.56135e+06 738968 1.17721e+06 536174 168343 93444 384135 95261 1.00887e+06 212006 57179 366491 12747 796863 43108 48096 36265 364336 42313 202794 753755 202168 82514 39603 10696 198029 13192 32412 14866
internal_count=2300315 1561347 738968 1177212 536174 168343 93444 384135 95261 1008869 212006 57179 366491 12747 796863 43108 48096 36265 364336 42313 202794 753755 202168 82514 39603 10696 198029 13192 32412 14866
is_linear=0
shrinkage=0.1


Tree=11
num_leaves=31
num_cat=0
split_feature=15 6 2 14 15 2 3 9 15 6 4 31 3 15 18 16 3 15 19 15 28 0 14 3 6 6 9 6 19 0
split_gain=11772.5 5634.08 1547.06 987.255 634.622 697.294 576.457 537.625 297.273 260.43 249.084 189.61 178.24 222.349 175.679 114.39 109.857 106.214 99.4487 95.9042 82.4257 81.8952 78.7296 74.7597 67.2173 66.4348 64.5916 64.1859 64.1161 78.2219
threshold=-0.050854232056872846 2.353045219768688 5.8524695000000024 0.0049446109742851008 0.17554750215176107 2.2891635000000048 0.31169420995360492 -1.0000000180025095e-35 0.40421967088133937 -1.5856528961907974 -0.26296191961167448 19.550250000000009 0.50938704544099733 0.022763641419552352 82.450000000000017 0.72945000000000015 0.18714869468945119 0.016564076689094803 7.0139581324745217 -0.12551990015441514 5.653562499999996 -2.0392701653385665 0.016320340765039552 0.40384811806652193 -0.036174982391628745 6.2768866277142843 0.0063306661768693512 0.11369915605508267 -10.873172326374833 1.2783388312261359
decision_type=2 2 2 2 2 2 2 2 2 2 2 2 2 2 2 2 2 2 2 2 2 2 2 2 2 2 2 2 2 2
left_child=2 4 10 14 5 7 8 11 16 -9 18 21 -7 26 25 22 -6 20 28 -12 -11 -2 -5 -19 -15 -3 -14 -25 29 -1
right_child=1 3 -4 15 6 12 -8 9 -10 17 19 -13 13 24 -16 -17 -18 23 -20 -21 -22 -23 -24 27 -26 -27 -28 -29 -30 -31
leaf_value=-0.0028160208016137517 0.0072355672419288572 -0.00090665067104089229 -0.00016689002318140753 -0.0015831366999645453 0.00026014346400885587 -9.6633953837422235e-05 -0.014934090289442013 0.014561322820856426 -0.012304625126882157 0.011753376898624983 0.012758335314503683 0.003408745986569592 0.0069745308877402594 -0.0045624017775848522 -0.015816164164055013 -0.015612535339562026 -0.0047745987956698474 -0.0007643312699326262 -0.0030805390626192095 0.00091169423586108945 0.0005783216543280321 0.019071951146176009 -0.014402543843104576 -0.0015442616670362412 -0.016560040748402723 -0.020905084868610677 -0.0037030242748369545 -0.015886167282065676 0.015676204965172549 0.015330949460332165
leaf_weight=4202 6855 69178 80693 10034 135776 789051 46421 14060 28267 10057 11491 12390 9170 6415 9578 384252 63657 32513 2900 16860 19203 39693 9168 5425 17164 1702 14824 7346 436506 5464
leaf_count=4202 6855 69178 80693 10034 135776 789051 46421 14060 28267 10057 11491 12390 9170 6415 9578 384252 63657 32513 2900 16860 19203 39693 9168 5425 17164 1702 14824 7346 436506 5464
internal_value=0 -0.00404906 0.0126394 -0.0132191 -0.000522461 0.000662774 -0.00477776 0.0070012 -0.0027072 0.00207793 0.0148039 0.0144025 -0.000455032 -0.00639946 -0.00310458 -0.0152361 -0.0013469 -0.0002766 0.0153778 0.00571328 0.00441932 0.0173288 -0.00770377 -0.00331084 -0.0132959 -0.00138686 0.000377712 -0.00979386 0.0154978 0.00744211
internal_weight=0 1.7422e+06 558116 483912 1.25829e+06 984166 274121 147542 227700 88604 477423 58938 836624 47573 80458 403454 199433 74544 449072 28351 29260 46548 19202 45284 23579 70880 23994 12771 446172 9666
internal_count=2300315 1742199 558116 483912 1258287 984166 274121 147542 227700 88604 477423 58938 836624 47573 80458 403454 199433 74544 449072 28351 29260 46548 19202 45284 23579 70880 23994 12771 446172 9666
is_linear=0
shrinkage=0.1


Tree=12
num_leaves=31
num_cat=0
split_feature=15 5 2 14 15 3 6 6 6 3 15 3 2 28 8 16 9 9 28 6 19 1 14 3 6 6 13 9 19 4
split_gain=9552.09 4040.5 2495.48 578 396.416 281.41 252.455 176.779 171.845 381.462 172.041 159.026 118.94 219.16 116.873 115.42 112.432 111.766 108.329 90.1025 89.5636 84.054 84.0433 75.2708 68.9532 61.7152 60.213 56.1406 55.0362 72.8125
threshold=-1.0000000180025095e-35 1.0751518146280106 2.3774909999999854 0.0036380615369754005 0.36741461703869771 0.38339371968813013 -1.6445572662225578 1.0621722669294942 0.045847968880672059 0.42601585849884066 0.11087220933649251 0.46062822097798156 2.3774909999999854 3.0924999999999989 0.034770819036599607 0.72945000000000015 -0.03508326793019894 -0.011317024444405898 8.7332499999999964 4.3686071615377111 6.5229157796450687 0.69439155912670958 0.0061103099180684507 0.60564573113184983 0.045847968880672059 4.3686071615377111 -0.33559104134290257 0.10309707735390101 -10.873172326374833 -2.2757831163057562
decision_type=2 2 2 2 2 2 2 2 2 2 2 2 2 2 2 2 2 2 2 2 2 2 2 2 2 2 2 2 2 2
left_child=2 4 5 -3 8 18 11 16 12 14 17 -4 13 27 -10 19 -5 -11 -1 -9 28 -15 -16 -19 -6 26 -8 -2 29 -7
right_child=1 3 6 7 24 20 25 15 9 10 -12 -13 -14 21 22 -17 -18 23 -20 -21 -22 -23 -24 -25 -26 -27 -28 -29 -30 -31
leaf_value=0.010947556954733498 0.020088181670766113 -0.0010083223426946718 0.00037064231405025154 0.018151740166627076 -0.0047337919901036815 0.013137507125197637 0.0078188603064645538 0.00042572902711492762 -0.0003824815241006104 0.0056535410326685829 -0.018318553966388845 0.015585681101070073 0.00014345612664295885 -0.00022215957297789507 -0.0020552583028769352 -0.013947964274725217 -0.0067108459302667282 -0.0058236517157397548 -0.0018343511525496931 -0.013750749598443508 -0.0016085638219006993 0.01376615272913493 -0.0089293029692863856 -0.01878277519617939 -0.01357775501838657 -0.013081566641714002 -0.00010627630925017463 0.0054438904533881125 0.014164943426625963 -0.0049932558825604399
leaf_weight=11307 9853 43153 10968 1995 12970 6042 10039 10199 403853 6591 17476 18383 436183 35765 46763 402156 20600 18001 16032 8000 3701 4882 28703 5968 27524 3527 212862 3565 459757 3497
leaf_count=11307 9853 43153 10968 1995 12970 6042 10039 10199 403853 6591 17476 18383 436183 35765 46763 402156 20600 18001 16032 8000 3701 4882 28703 5968 27524 3527 212862 3565 459757 3497
internal_value=0 -0.00450918 0.00920902 -0.012056 -0.00104207 0.0133166 0.0011741 -0.0131323 -0.000655957 -0.00190891 -0.0104047 0.00990006 0.000691834 0.00511601 -0.00105749 -0.0135955 -0.00451563 -0.00587908 0.00345205 -0.00580603 0.0138868 0.00145794 -0.00466976 -0.00905032 -0.0107451 4.29835e-05 0.000250655 0.0161974 0.014009 0.00649076
internal_weight=0 1.5442e+06 756115 486103 1.0581e+06 500336 255779 442950 1.0176e+06 527355 48036 29351 490248 54065 479319 420355 22595 30560 27339 18199 472997 40647 75466 23969 40494 226428 222901 13418 469296 9539
internal_count=2300315 1544200 756115 486103 1058097 500336 255779 442950 1017603 527355 48036 29351 490248 54065 479319 420355 22595 30560 27339 18199 472997 40647 75466 23969 40494 226428 222901 13418 469296 9539
is_linear=0
shrinkage=0.1


Tree=13
num_leaves=31
num_cat=0
split_feature=15 6 2 14 2 9 14 31 6 19 16 6 16 19 14 8 15 16 6 0 16 2 1 15 0 5 0 17 6 19
split_gain=7752.96 3815.88 923.352 670.836 501.79 383.548 373.052 172.584 150.746 140.396 129.564 113.019 259.221 102.876 98.8543 97.2204 96.5502 90.0918 86.2902 80.4042 79.9484 77.3432 126.585 75.3997 73.0705 62.541 59.9601 63.3724 53.5232 50.0981
threshold=-0.059523359112937144 2.353045219768688 5.6761279400000015 0.0038355743232361505 1.2495319999999988 0.072933180037736509 0.019595549508982454 13.855062500000001 -0.39996750833319994 6.026981333668437 0.79855000000000009 1.0000000180025095e-35 1.4770500000000004 -10.873172326374833 0.016320340765039552 0.022969952132516954 0.037736516012763961 1.1177500000000002 -1.2755456746219225 0.29102119742848981 0.88165000000000016 3.4250140000000004 0.57943559931659616 0.070093537349545362 0.51500134531052033 0.75556559198196893 -5.3278643862018873 0.0013500000000000003 1.4514465700139649 -11.849741479044082
decision_type=2 2 2 2 2 2 2 2 2 2 2 2 2 2 2 2 2 2 2 2 2 2 2 2 2 2 2 2 2 2
left_child=2 4 9 17 5 7 11 29 23 13 14 21 15 18 -5 -13 24 -3 -1 -9 -17 22 -6 -8 -7 -10 27 -23 -22 -2
right_child=1 3 -4 10 6 16 8 19 25 -11 -12 12 -14 -15 -16 20 -18 -19 -20 -21 28 26 -24 -25 -26 -27 -28 -29 -30 -31
leaf_value=0.012086382384981017 -0.00074843840583305524 0.00025679252965696043 -0.00013817423013985641 -0.0020250889187050721 0.0015441939897352978 0.0001709432078297172 0.010782804887494004 -0.0010030685477680418 -0.0069876391625319266 -0.0028184305572537 -0.012733761801618457 0.00010392385546564505 -0.0096295037186267564 0.012666955276405862 -0.012335636574849776 -0.00097663003026722951 -0.0048208787543873623 -0.010307565048491646 -0.0048661590862270352 0.012268268709251347 -0.0034712335496886446 0.016491148437801941 0.013739931566654255 -0.0035843241594960538 0.012952332148728072 -0.013235997183795228 7.6969448963899398e-05 2.038761660901704e-05 -0.0092350996165766839 0.014459342765686257
leaf_weight=5789 2270 55648 69615 21006 34497 14289 5397 14970 38667 6128 383505 354504 36024 443238 16685 109528 28025 9442 6238 6568 54465 4624 11298 11303 6511 27349 447782 4721 22878 47351
leaf_count=5789 2270 55648 69615 21006 34497 14289 5397 14970 38667 6128 383505 354504 36024 443238 16685 109528 28025 9442 6238 6568 54465 4624 11298 11303 6511 27349 447782 4721 22878 47351
internal_value=0 -0.00318045 0.0105972 -0.0107238 -0.000321386 0.00583576 -0.000956583 0.0105191 -0.00742905 0.012217 -0.0121839 -0.000461012 -0.00141559 0.0124193 -0.00658935 -0.000869025 -0.000989859 -0.00127568 0.00329367 0.00304402 -0.00271476 0.000634931 0.00455298 0.00105875 0.00417189 -0.0095762 0.00024242 0.00817029 -0.00517618 0.0137636
internal_weight=0 1.76931e+06 531008 486286 1.28302e+06 119984 1.16304e+06 71159 82716 461393 421196 1.08032e+06 577399 455265 37691 541375 48825 65090 12027 21538 186871 502922 45795 16700 20800 66016 457127 9345 77343 49621
internal_count=2300315 1769307 531008 486286 1283021 119984 1163037 71159 82716 461393 421196 1080321 577399 455265 37691 541375 48825 65090 12027 21538 186871 502922 45795 16700 20800 66016 457127 9345 77343 49621
is_linear=0
shrinkage=0.1


Tree=14
num_leaves=31
num_cat=0
split_feature=15 5 2 15 3 3 4 15 3 15 9 16 2 5 2 6 28 6 19 8 6 25 0 6 5 1 20 3 7 24
split_gain=6322.06 2677.94 1637.06 520.831 293.738 196.129 180.559 164.844 159.259 377.11 216.46 135.822 135.425 122.274 118.194 110.032 77.7286 73.4537 63.549 60.4815 58.6394 50.168 66.0504 49.6536 49.2247 46.7307 44.992 44.7597 43.8726 41.5955
threshold=-1.0000000180025095e-35 1.6733276891867346 2.3774909999999854 0.23377461163681648 0.18534443764096428 0.38010872011210495 -2.367990084406224 0.47203102674361236 0.39678151571335135 0.08557049739913361 0.0020886185804010007 0.61005000000000009 12.440662250000004 0.30426931461043066 2.7952429999999997 -1.3706379243652649 10.030312499999997 -1.0000000180025095e-35 6.5229157796450687 0.036032817963409812 0.86303032188396112 44.600812500000011 0.39675344389819839 1.2247491848846883 2.8477860416721748 0.45146158318726803 21.046750000000003 0.5797819698539044 -0.12642920850712902 1.8043124999999987
decision_type=2 2 2 2 2 2 2 2 2 2 2 2 2 2 2 2 2 2 2 2 2 2 2 2 2 2 2 2 2 2
left_child=2 3 5 8 7 16 12 19 -2 10 14 -3 25 -6 -10 -12 28 -11 21 -5 -13 -7 -23 -17 -8 -4 -25 -19 -1 -18
right_child=1 11 6 4 13 18 24 -9 9 17 15 20 -14 -15 -16 23 29 27 -20 -21 -22 22 -24 26 -26 -27 -28 -29 -30 -31
leaf_value=0.013091329099082651 0.00011493594497608754 0.00065518558978936619 0.0043595461508711122 0.0010822768139083416 -0.0038353697973822413 0.01159416295990647 5.3745105451646047e-05 -0.012254669400083342 0.014389430841232679 -0.0044304699214455755 0.009281538969807086 -0.0024300327124766757 -0.0018094267486923072 -0.012251094935342863 0.0013583306925454431 -0.0027012781465099037 0.00893862738585177 -0.011064402071152932 -0.0016243823912804373 -0.0053760182370484987 -0.011482394547180735 -0.0021706152942277406 0.01065708317793336 -0.013780802777503029 -0.013020032646313807 0.01383087960930944 -0.0021439805328845978 -0.019423003902808034 0.00023682387847595902 -0.0048536442264398988
leaf_weight=7524 851964 9751 7130 60791 22989 452497 215121 13910 13448 13531 6200 7301 11271 69330 14428 32241 2667 26002 3782 19043 360137 6184 11439 9533 2919 19338 5100 8501 4103 12140
leaf_count=7524 851964 9751 7130 60791 22989 452497 215121 13910 13448 13531 6200 7301 11271 69330 14428 32241 2667 26002 3782 19043 360137 6184 11439 9533 2919 19338 5100 8501 4103 12140
internal_value=0 -0.00366841 0.00749193 -0.0013009 -0.0061516 0.0108188 0.000984081 -0.00220862 -0.000380841 -0.00365554 0.000509623 -0.0109934 0.00737039 -0.0101554 0.00764482 -0.00323799 0.00243576 -0.0106749 0.0112864 -0.000458236 -0.0113025 0.0113903 0.00615578 -0.00489394 -0.000121279 0.0112795 -0.00972505 -0.0131238 0.00855516 -0.00236941
internal_weight=0 1.5442e+06 756115 1.16701e+06 186063 500336 255779 93744 980948 128984 80950 377189 37739 92319 27876 53074 26434 48034 473902 79834 367438 470120 17623 46874 218040 26468 14633 34503 11627 14807
internal_count=2300315 1544200 756115 1167011 186063 500336 255779 93744 980948 128984 80950 377189 37739 92319 27876 53074 26434 48034 473902 79834 367438 470120 17623 46874 218040 26468 14633 34503 11627 14807
is_linear=0
shrinkage=0.1


Tree=15
num_leaves=31
num_cat=0
split_feature=15 5 2 14 14 3 3 6 13 15 8 1 0 6 3 15 23 0 0 9 6 15 2 16 4 1 6 13 17 26
split_gain=5128.56 2043.23 1685.07 326.687 203.721 194.747 188.601 170.159 159.168 116.848 91.8975 75.0612 84.9954 68.2264 65.0277 108.746 60.0265 58.7245 57.4969 56.4458 56.3661 55.6078 51.2819 49.6169 49.2273 78.0901 48.3723 46.5418 46.0724 37.7478
threshold=0.016564076689094803 1.0385881135982948 2.2891635000000048 0.0089784897978877516 0.0097199054483805506 0.34872922771304365 0.2772724543084672 1.140953089997885 -0.31425860128161237 0.23377461163681648 0.025933093604210405 0.33516818728012904 0.63771292119985667 0.35114242636900733 0.31692184512780192 0.10912878935985292 18.254625000000008 -5.3278643862018873 0.51500134531052033 -0.0066613294704039993 -0.59646894948613394 0.11274511343641137 2.7952429999999997 0.97215000000000007 -2.4163858125429649 0.62259831672777854 -0.33028232241044225 0.017464803240175252 0.00075000000000000012 0.52237499999999992
decision_type=2 2 2 2 2 2 2 2 2 2 2 2 2 2 2 2 2 2 2 2 2 2 2 2 2 2 2 2 2 2
left_child=2 4 5 6 14 18 9 10 13 -3 -6 12 16 -4 -2 20 -7 28 29 -8 22 -12 -16 -9 25 -19 -5 -23 -10 -1
right_child=1 3 8 26 7 11 19 23 17 -11 21 -13 -14 -15 15 -17 -18 24 -20 -21 -22 27 -24 -25 -26 -27 -28 -29 -30 -31
leaf_value=0.012906023051819008 9.3894128786280745e-05 0.00096968563492345222 0.011573065442239098 0.001181095591700064 0.00066338279589625267 0.003861281441758152 0.0011405915440715981 -0.0048617096245972703 0.017256180050358859 -0.008567000873575743 0.00024684394619034619 0.010433536877889378 0.0098249171501627059 0.00047485153005565305 0.012401755067847749 -0.009850370958933043 -0.012071194405093204 0.0010261352462082084 0.013121530606930901 -0.01197191966657604 -0.0026856723888755434 -0.0095461891009627053 0.00022271285853764746 -0.011259662230651151 -0.00039524712777474987 0.012864516132968202 -0.010420959216464493 -0.0036333155356350604 0.0018006028785235999 -0.0018204477010516043
leaf_weight=1901 667542 56306 18569 3628 64960 6014 3718 19611 3521 16646 18425 464366 13328 7894 5155 17645 3897 23954 3546 28054 47498 22872 10498 31738 296301 7261 378727 31849 4265 20626
leaf_count=1901 667542 56306 18569 3628 64960 6014 3718 19611 3521 16646 18425 464366 13328 7894 5155 17645 3897 23954 3546 28054 47498 22872 10498 31738 296301 7261 378727 31849 4265 20626
internal_value=0 -0.00370109 0.00602391 -0.00895551 -0.000972011 0.00970573 -0.00400698 -0.00390129 0.000795999 -0.00120637 -0.00207389 0.010156 0.00460979 0.00826243 -0.000230413 -0.00290986 -0.00240336 0.000206726 0.00128542 -0.0104375 -0.00097061 -0.00450482 0.00423363 -0.00881618 2.67827e-06 0.00377989 -0.0103109 -0.00610475 0.00878995 -0.000577716
internal_weight=0 1.42487e+06 875443 487079 937793 513678 104724 189455 361765 72952 138106 487605 23239 26463 748338 80796 9911 335302 26073 31772 63151 73146 15653 51349 327516 31215 382355 54721 7786 22527
internal_count=2300315 1424872 875443 487079 937793 513678 104724 189455 361765 72952 138106 487605 23239 26463 748338 80796 9911 335302 26073 31772 63151 73146 15653 51349 327516 31215 382355 54721 7786 22527
is_linear=0
shrinkage=0.1


Tree=16
num_leaves=31
num_cat=0
split_feature=15 6 2 14 2 9 14 31 6 16 6 16 6 8 15 25 0 18 2 28 16 9 1 5 19 19 0 17 8 0
split_gain=4168.39 2159.82 390.127 379.321 370.991 260.512 198.977 124.767 113.742 83.5655 81.2766 163.736 75.1691 71.4415 67.8218 67.0433 80.8843 63.021 57.3895 95.4376 54.5565 53.984 49.7887 46.5055 44.1691 45.6902 44.162 48.4812 42.4082 38.0152
threshold=-0.07557573162517893 2.353045219768688 7.9369045000000042 0.0037350183977983005 1.2495319999999988 0.072933180037736509 0.019595549508982454 20.413812500000002 -1.5260986781719674 0.79855000000000009 1.0000000180025095e-35 1.4922500000000001 -1.1859310478757774 0.021916756814171105 0.3055209375989591 40.548375000000007 0.39675344389819839 93.450000000000017 3.5667075000000006 3.8702499999999995 0.88165000000000016 -0.016406497255899898 0.46889810885134803 0.58000223961663777 4.320793593336691 -11.849741479044082 -5.3278643862018873 0.0013500000000000003 0.037392629425305308 1.2783388312261359
decision_type=2 2 2 2 2 2 2 2 2 2 2 2 2 2 2 2 2 2 2 2 2 2 2 2 2 2 2 2 2 2
left_child=2 4 15 17 5 7 10 24 -8 14 18 13 -7 -12 -5 -1 -17 -3 19 22 -15 -10 -6 -23 25 -2 27 -20 -22 -21
right_child=1 3 -4 9 6 12 8 -9 21 -11 11 -13 -14 20 -16 16 -18 -19 26 29 28 23 -24 -25 -26 -27 -28 -29 -30 -31
leaf_value=0.0094460211887056039 -0.0009909985649397149 0.00011601641761313383 -0.00059811833336132273 -0.0012010429347039317 0.0027533920602976834 0.0065946681882677024 0.0083390165685080387 4.0305814732688928e-05 0.0016436799369346331 -0.0094113790259202912 0.0001669500535644502 -0.0078164137660199032 -0.0026900761357052908 -0.00079472410257904564 -0.0097790586925886065 -0.002386878666888418 0.008924402550525682 -0.011683754093144249 0.014249879098208657 7.8144765997792528e-05 -0.0024444042330842262 -0.0047061129803925381 0.016080005177198365 -0.0098236298283438557 -0.00096006483733568056 0.011215160460612784 0.00010902433589136017 -9.6200408749635654e-05 -0.0070701797173098012 0.0088697444978802515
leaf_weight=414386 3224 60234 45410 23673 4304 11057 5660 15199 7651 385866 349947 34350 41249 119051 15094 10836 15175 4894 4678 33729 55485 36487 8041 34594 3467 62835 452404 4745 30832 5758
leaf_count=414386 3224 60234 45410 23673 4304 11057 5660 15199 7651 385866 349947 34350 41249 119051 15094 10836 15175 4894 4678 33729 55485 36487 8041 34594 3467 62835 452404 4745 30832 5758
internal_value=0 -0.00220264 0.00822693 -0.00787682 -0.000104881 0.00482189 -0.0006733 0.00824779 -0.0053533 -0.00896673 -0.000315332 -0.00111639 -0.000727368 -0.000701952 -0.00454091 0.0091369 0.0042122 -0.000770669 0.000604263 0.00375941 -0.00218256 -0.00633764 0.0114338 -0.00719673 0.010042 0.0106194 0.000250153 0.00702584 -0.00409671 0.00136014
internal_weight=0 1.81451e+06 485807 489761 1.32475e+06 137031 1.18772e+06 84725 84392 424633 1.10332e+06 589665 52306 555315 38767 440397 26011 65128 513659 51832 205368 78732 12345 71081 69526 66059 461827 9423 86317 39487
internal_count=2300315 1814508 485807 489761 1324747 137031 1187716 84725 84392 424633 1103324 589665 52306 555315 38767 440397 26011 65128 513659 51832 205368 78732 12345 71081 69526 66059 461827 9423 86317 39487
is_linear=0
shrinkage=0.1


Tree=17
num_leaves=31
num_cat=0
split_feature=15 5 2 14 3 3 13 15 3 15 15 6 6 3 15 31 0 6 1 1 6 9 9 3 0 4 2 13 28 5
split_gain=3411.74 1350.32 1105.48 334.213 169.048 132.709 111.167 109.287 105.977 210.342 99.9942 98.7649 68.7044 59.521 59.0761 57.993 92.2328 49.3382 48.5506 46.8317 45.3933 44.8849 43.4119 43.1176 42.7471 41.3884 40.6244 39.4779 37.2392 35.8757
threshold=0.016564076689094803 0.84618089082632275 2.2891635000000048 0.0092155733911305025 0.30901486562280855 0.34547455780352393 -0.28941206153091847 0.4274158902988035 0.31692184512780192 0.13399341708015652 0.21200980875282827 -1.0592819091663916 0.35114242636900733 0.60564573113184983 0.059960162144468657 21.342562500000003 0.83586414793068986 -0.33028232241044225 0.37940910006458001 0.55505157362337221 -1.0000000180025095e-35 -0.0022838870740913993 -0.0044247702765314997 0.16628642956664105 -5.3278643862018873 -3.5104508177489779 2.9087490000000042 0.18020599417598962 4.3660624999999982 3.5738000000880152
decision_type=2 2 2 2 2 2 2 2 2 2 2 2 2 2 2 2 2 2 2 2 2 2 2 2 2 2 2 2 2 2
left_child=2 7 5 4 10 25 12 8 27 11 -3 19 -4 21 22 -7 18 -5 -17 -10 -15 26 -6 -12 -8 -1 28 -2 -13 -26
right_child=1 3 6 17 14 15 24 -9 9 -11 23 13 -14 20 -16 16 -18 -19 -20 -21 -22 -23 -24 -25 29 -27 -28 -29 -30 -31
leaf_value=0.013924341830357479 -3.3514235754087792e-06 0.00062725794920102159 0.0092427787770790384 0.0011119769662396976 0.011213432775142997 0.0086449898883651441 0.0074306796953912697 -0.0081380774942129818 0.0021438624027541211 -0.0086499619954464261 -0.0025256866500141472 0.020577455489600962 -0.00021620678903222013 0.0018245244234711606 -0.011896657722359136 -0.010352549378667244 0.0082785895820876899 -0.0085309200950578895 0.0021534858286100808 0.012221906847677468 -0.01459546990879791 -0.0022756840007890885 -0.0059078422695582559 -0.010512414084657031 2.1075306608293514e-05 -0.00040472186836380857 0.00024650163594194829 0.0054327503039230821 0.0037524916424319663 -0.012578808795169703
leaf_weight=2208 689735 87244 22954 5378 1870 434561 7786 18742 12110 43869 14203 2211 11539 2351 23173 3879 34333 396422 15542 7446 5931 64642 7118 12898 317210 23155 12658 13623 3248 2276
leaf_count=2208 689735 87244 22954 5378 1870 434561 7786 18742 12110 43869 14203 2211 11539 2351 23173 3879 34333 396422 15542 7446 5931 64642 7118 12898 317210 23155 12658 13623 3248 2276
internal_value=0 -0.0030187 0.00491324 -0.00691104 -0.00282242 0.00789539 0.000678825 -0.000583983 -0.000418939 -0.00279074 -0.00102092 -0.000466645 0.00607845 -0.00185165 -0.00922745 0.00826171 0.00516316 -0.00840185 -0.000344373 0.00598111 -0.00993435 -0.00104278 -0.00234567 -0.00632676 0.000109729 0.000842708 0.00335624 0.000101938 0.0105669 -6.86855e-05
internal_weight=0 1.42487e+06 875443 548306 146506 513678 361765 876566 857824 154466 114345 110597 34493 91041 32161 488315 53754 401800 19421 19556 8282 82759 8988 27101 327272 25363 18117 703358 5459 319486
internal_count=2300315 1424872 875443 548306 146506 513678 361765 876566 857824 154466 114345 110597 34493 91041 32161 488315 53754 401800 19421 19556 8282 82759 8988 27101 327272 25363 18117 703358 5459 319486
is_linear=0
shrinkage=0.1


Tree=18
num_leaves=31
num_cat=0
split_feature=6 6 2 9 14 2 14 31 6 3 15 3 13 3 15 8 16 6 3 28 7 15 3 15 13 6 3 15 29 14
split_gain=2774.81 1381.23 401.758 329.759 268.801 245.849 138.889 96.1555 93.819 91.4806 205.512 81.2078 71.221 58.3723 56.4425 48.5721 42.7751 50.3101 39.7641 39.2312 35.5806 35.1978 34.3921 38.1753 37.546 34.3028 67.2538 51.7637 31.6861 30.5983
threshold=-1.1419508393598841 3.0901848285637201 5.8524695000000024 -0.011317024444405898 0.017377578632391501 2.3774909999999854 0.0023543033355045003 18.040250000000007 0.96273517233132022 0.21120760231115046 0.13399341708015652 0.34872922771304365 -0.31425860128161237 0.32855755656495361 0.0070652812872581509 0.020106729072458852 0.79855000000000009 5.3081385910964922 0.63721485883551909 4.7018749999999967 -0.24935651092327743 -0.034763276716057993 0.39361822165969962 0.36034058164302024 0.13001599376058504 0.7842118045666131 0.49975142083309559 0.015068304902148402 0.51981249999999946 0.017917092338579303
decision_type=2 2 2 2 2 2 2 2 2 2 2 2 2 2 2 2 2 2 2 2 2 2 2 2 2 2 2 2 2 2
left_child=2 3 13 5 9 7 -3 19 14 -5 12 15 -11 20 -6 -12 17 29 -4 21 -1 -2 23 -16 -25 28 -27 -28 -14 -8
right_child=1 6 18 4 8 -7 16 -9 -10 10 11 -13 25 -15 22 -17 -18 -19 -20 -21 -22 -23 -24 24 -26 26 27 -29 -30 -31
leaf_value=0.011412940733306842 0.0096113160561318578 0.0012115438826649431 0.00021494855137712979 0.00029519284573409268 0.0041814565096376047 0.00072252195774613029 0.0016383546113410885 0.0014713465389197483 -0.0083373084827339499 0.0069113146258034351 -0.0014078740807610139 -0.011030329232547311 0.006407358632242139 0.0079158977405748409 0.0022449886389430697 -0.0068149439696572741 -0.0078250808885689596 -0.0090612586427887831 0.015278256239842995 0.0065982058427888944 -0.00020460640941821295 0.016807573374136613 -0.0073663251230258811 -0.0094223763464399476 0.0001682167089253167 -0.0011288835133061125 -0.0035585360705387963 -0.013693109897753367 -0.0002971485937080858 -0.0072474158255632377
leaf_weight=3247 23649 19207 93346 534762 9807 174984 14018 20717 61435 12225 32757 23124 7287 413552 12418 33711 346873 11984 1786 28025 14015 9538 19630 9050 7436 118399 14242 7800 215935 5356
leaf_count=3247 23649 19207 93346 534762 9807 174984 14018 20717 61435 12225 32757 23124 7287 413552 12418 33711 346873 11984 1786 28025 14015 9538 19630 9050 7436 118399 14242 7800 215935 5356
internal_value=0 -0.00189091 0.00637932 -0.000391957 -0.00113314 0.00283923 -0.00708407 0.0073601 -0.00560997 -0.000597048 -0.00162209 -0.00592599 -0.000596266 0.00767808 -0.00273799 -0.00415021 -0.00750533 -0.00396839 0.000497746 0.00935312 0.00198067 0.0116795 -0.00413616 -0.00194241 -0.00509655 -0.000848643 -0.00207308 -0.00714486 -7.82824e-05 -0.000818143
internal_weight=0 1.77437e+06 525946 1.37693e+06 1.12002e+06 256913 397438 81929 119776 1.00024e+06 465480 89592 375888 430814 58341 66468 378231 31358 95132 61212 17262 33187 48534 28904 16486 363663 140441 22042 223222 19374
internal_count=2300315 1774369 525946 1376931 1120018 256913 397438 81929 119776 1000242 465480 89592 375888 430814 58341 66468 378231 31358 95132 61212 17262 33187 48534 28904 16486 363663 140441 22042 223222 19374
is_linear=0
shrinkage=0.1


Tree=19
num_leaves=31
num_cat=0
split_feature=15 6 2 16 1 3 15 0 15 9 19 19 15 3 10 8 14 3 6 3 8 15 13 31 0 18 15 6 9 5
split_gain=2264.33 913.769 731.598 195.203 174.83 119.206 197.167 109.567 99.424 93.7958 84.9207 74.5372 63.4305 118.515 53.9648 51.7002 46.1612 42.3137 41.9597 48.0026 38.1694 44.9164 78.2608 37.6671 43.4796 36.1729 34.0711 54.6086 44.5861 32.4586
threshold=0.016564076689094803 2.0665979421686802 4.9722394999999997 0.72945000000000015 0.3893275182682005 0.34872922771304365 0.10370606737494352 1.2783388312261359 0.47203102674361236 -0.0044247702765314997 6.7637224783934418 -9.9043820846574384 0.19019429389138667 0.37340258138991683 12.110806477777777 0.027884166913328606 0.018200353230094401 0.6481334158295694 -2.2188593858353385 0.64269707710349921 0.021252685666593853 0.23377461163681648 0.078087815847159167 26.048000000000005 0.83586414793068986 141.35000000000005 -0.027432766025723896 1.0877211542358833 -0.026804731658264996 0.47199197342678129
decision_type=2 2 2 2 2 2 2 2 2 2 2 2 2 2 2 2 2 2 2 2 2 2 2 2 2 2 2 2 2 2
left_child=2 5 4 16 7 8 9 17 20 14 11 25 13 15 -7 -5 -3 -1 -11 -20 -2 -22 -23 26 -25 -6 -13 -28 -29 -8
right_child=1 3 -4 12 10 6 29 -9 -10 18 -12 23 -14 -15 -16 -17 -18 -19 19 -21 21 22 -24 24 -26 -27 27 28 -30 -31
leaf_value=-0.0024456478723626981 0.00065265308389374146 0.0005914863326811436 -5.8964537729073285e-05 0.00089030287937604034 -0.0026564558821518544 0.00076590560091028019 -0.0050923666777214563 0.0068177768184629591 -0.0083208231146437855 0.0093265519222563795 -0.0031610745013686153 0.0071376207222437153 -0.0072701386055749736 -0.0077283499386516311 0.010949687821455646 -0.0065278217494797418 -0.0072671388871622588 0.0069008320021775168 -0.0015911813447998975 -0.010775780771616669 -0.00018660613648037287 -0.007834576041320122 -0.00048157213819817186 0.00027689129819934193 0.0070138546382844079 0.0063403945523063908 0.012156083581475893 0.013548498344158666 -0.0059489647444017331 -0.009683611028697154
leaf_weight=41896 449923 51588 294361 37715 11830 10617 29353 24998 14409 3128 8561 408261 339867 53273 10205 12512 8741 5477 54561 6353 248045 22926 39267 16637 22584 7182 28526 1815 3315 32389
leaf_count=41896 449923 51588 294361 37715 11830 10617 29353 24998 14409 3128 8561 408261 339867 53273 10205 12512 8741 5477 54561 6353 248045 22926 39267 16637 22584 7182 28526 1815 3315 32389
internal_value=0 -0.00245925 0.00400267 -0.0058839 0.00606019 -0.000586653 -0.00320142 0.00146141 -9.17454e-05 -7.3392e-05 0.00671443 0.00688346 -0.00661008 -0.00444262 0.00575704 -0.000957619 -0.000547141 -0.00136506 -0.00196904 -0.00254909 6.42384e-05 -0.000789111 -0.00319209 0.00712613 0.00415613 0.000742207 0.00738973 0.0104479 0.000949261 -0.00750087
internal_weight=0 1.42487e+06 875443 503696 581082 921176 146606 72371 774570 84864 508711 500150 443367 103500 20822 50227 60329 47373 64042 60914 760161 310238 62193 481138 39221 19012 441917 33656 5130 61742
internal_count=2300315 1424872 875443 503696 581082 921176 146606 72371 774570 84864 508711 500150 443367 103500 20822 50227 60329 47373 64042 60914 760161 310238 62193 481138 39221 19012 441917 33656 5130 61742
is_linear=0
shrinkage=0.1


Tree=20
num_leaves=31
num_cat=0
split_feature=6 15 2 9 6 5 2 13 28 3 15 2 1 31 24 3 9 15 1 16 3 3 16 17 6 8 19 0 17 19
split_gain=1838.33 927.92 259.252 215.874 191.687 173.85 168.884 101.521 75.5781 72.3646 172.758 79.9708 71.7724 69.5832 58.3715 54.6999 47.9287 47.8815 42.702 38.9357 35.9143 34.1453 33.8567 33.4065 31.0377 30.5995 29.7141 28.858 48.1345 28.2779
threshold=-1.1419508393598841 0.21887135846539213 5.8524695000000024 -0.026804731658264996 1.4214297745861126 2.1528045095070616 2.9087490000000042 0.08021303646245681 7.4531874999999967 0.31692184512780192 0.067138024436903615 1.1025634999999927 0.39284946028984297 20.413812500000002 4.4052499999999961 0.34267464676377318 0.39824232992310526 0.47203102674361236 0.27692075624094553 0.46865000000000007 0.34547455780352393 0.70750936406413734 1.41795 0.036750000000000012 5.782705967771677 0.027884166913328606 4.7901877881224317 -5.3278643862018873 0.0047500000000000007 -7.9443528530169818
decision_type=2 2 2 2 2 2 2 2 2 2 2 2 2 2 2 2 2 2 2 2 2 2 2 2 2 2 2 2 2 2
left_child=2 3 18 6 7 9 8 20 -2 27 11 13 16 26 -10 24 -12 22 -1 -6 25 -4 -9 -20 -7 -3 29 28 -5 -11
right_child=1 4 21 5 19 15 -8 17 14 10 12 -13 -14 -15 -16 -17 -18 -19 23 -21 -22 -23 -24 -25 -26 -27 -28 -29 -30 -31
leaf_value=0.0012595347296245479 0.009282615366135033 -0.0011744003448035205 0.00028988997267091028 0.010169474546796462 0.0078864461139489632 0.0011759048545395771 0.00064647249902552244 0.002180039042612139 0.0076196284550529752 -0.0027620182424651749 -0.00052257830945882965 -0.0010677322560934802 -0.0083403781320433353 -0.0045203826124881391 -9.1314318643212863e-05 -0.0072727520091229216 -0.0074899135963888488 -0.0066961784704445727 -0.017506433497871118 -0.0064889368505561696 -0.010166618002815949 0.020649532091531517 -0.0043439879091652792 0.0064685879194118336 -0.0091926711020999998 -0.0069962993695885257 -0.0075554115858622569 8.0848469857888879e-05 -0.00099531085406224617 0.0075523818765240855
leaf_weight=16581 41488 19454 94301 7541 1894 14561 151390 58513 17113 2936 32187 180195 42695 7982 23027 50879 14242 8436 582 361327 12102 831 9206 413651 3601 16845 1563 659204 7914 28074
leaf_count=16581 41488 19454 94301 7541 1894 14561 151390 58513 17113 2936 32187 180195 42695 7982 23027 50879 14242 8436 582 361327 12102 831 9206 413651 3601 16845 1563 659204 7914 28074
internal_value=0 -0.0015391 0.00519242 -0.000131031 -0.00525311 -0.000740207 0.00262331 -0.00186787 0.00628962 -0.000400039 -0.00166506 -0.000164777 -0.00538109 0.00384726 0.00319611 -0.00559104 -0.00265979 0.000408127 0.00623572 -0.00641398 -0.00544898 0.000467736 0.00129314 0.0064349 -0.000879884 -0.00387612 0.00589774 0.00018099 0.00445235 0.00657582
internal_weight=0 1.77437e+06 525946 1.28659e+06 487777 1.05357e+06 233018 124556 81628 984533 309874 220750 89124 40555 40140 69041 46429 76155 430814 363221 48401 95132 67719 414233 18162 36299 32573 674659 15455 31010
internal_count=2300315 1774369 525946 1286592 487777 1053574 233018 124556 81628 984533 309874 220750 89124 40555 40140 69041 46429 76155 430814 363221 48401 95132 67719 414233 18162 36299 32573 674659 15455 31010
is_linear=0
shrinkage=0.1


Tree=21
num_leaves=31
num_cat=0
split_feature=6 15 3 5 3 15 9 2 16 6 2 1 3 28 15 10 8 16 2 6 3 5 15 15 0 15 3 6 8 26
split_gain=1501.03 649.034 453.35 144.303 141.162 113.743 109.177 97.7402 89.5383 76.0482 74.7171 70.376 66.5972 61.8537 48.4423 42.4673 41.1458 44.914 39.2229 37.5133 36.8254 34.1551 32.2401 32.0141 31.0673 28.439 52.6561 28.2362 27.3572 27.356
threshold=-0.23013175455095888 0.21200980875282827 0.44851539541958751 2.6495891921404078 0.16971719493916407 0.44422679518707686 -0.066698635644502333 4.6543273370000025 1.3066500000000001 1.0109638593797439 11.117236000000004 0.62259831672777854 0.37340258138991683 2.689249999999999 0.16461707110899429 23.242194888888893 0.035393282890057658 0.92295000000000016 5.1452845000000016 4.8994099945684146 0.34872922771304365 0.17195599688942861 -0.10474780836616253 -0.045197224541324542 -4.3128102996742426 1.0000000180025095e-35 0.59527576154982875 1.5915104054611826 0.022799576184198454 0.34293750000000006
decision_type=2 2 2 2 2 2 2 2 2 2 2 2 2 2 2 2 2 2 2 2 2 2 2 2 2 2 2 2 2 2
left_child=2 3 11 6 5 19 7 13 16 15 14 29 28 23 -4 25 -8 -18 -13 -3 -15 -6 -14 -2 -5 -10 -27 -19 -11 -1
right_child=1 4 10 24 21 -7 8 -9 9 12 -12 18 22 20 -16 -17 17 27 -20 -21 -22 -23 -24 -25 -26 26 -28 -29 -30 -31
leaf_value=0.0050210014902145571 0.0087646682313011013 0.00067885633692318622 0.0057915800207656021 0.019573314877188937 -0.00045279265180591191 -0.0060241591531985097 0.00017053711573988969 0.00042279693195014577 0.0014946560179437507 0.0023666346272481014 -0.0012609352843275128 0.0090663191601233102 0.0022982274787197079 -0.00024414904978891576 -0.013584631612348777 0.0066263299984530115 -0.0004865411700126299 -0.0025004642182911941 0.0015340024338242253 -0.0063390913080321777 0.0064611326342283691 -0.0062188415563994379 -0.0092450240285433215 0.019798137681222936 -0.0057216944271775098 -0.0018816297994154706 -0.012889128148316621 -0.0078265317686161337 -0.0066327068184007885 7.8349288250067632e-05
leaf_weight=11633 8100 77400 449907 490 10607 49670 594621 80859 18222 10421 15796 14681 2609 12817 1294 6743 87054 27391 13066 8448 22691 326275 33326 3894 53468 33893 4985 15636 4998 299320
leaf_count=11633 8100 77400 449907 490 10607 49670 594621 80859 18222 10421 15796 14681 2609 12817 1294 6743 87054 27391 13066 8448 22691 326275 33326 3894 53468 33893 4985 15636 4998 299320
internal_value=0 -0.00187552 0.0034792 -0.000458903 -0.00494091 -0.00221542 -0.000178425 0.0025378 -0.000593544 -0.00318325 0.00549934 0.000693849 -0.00604804 0.00613802 0.00573601 -0.000878866 -0.00018189 -0.00179289 0.00551937 -1.17552e-05 0.00404079 -0.00603729 -0.00840695 0.0123468 -0.00549199 -0.00176516 -0.00329303 -0.00443596 -0.000550462 0.000263258
internal_weight=0 1.49462e+06 805697 1.02222e+06 472400 135518 968260 128361 839899 115197 466997 338700 51354 47502 451201 63843 724702 130081 27747 85848 35508 336882 35935 11994 53958 57100 38878 43027 15419 310953
internal_count=2300315 1494618 805697 1022218 472400 135518 968260 128361 839899 115197 466997 338700 51354 47502 451201 63843 724702 130081 27747 85848 35508 336882 35935 11994 53958 57100 38878 43027 15419 310953
is_linear=0
shrinkage=0.1


Tree=22
num_leaves=31
num_cat=0
split_feature=15 2 6 16 3 19 6 15 19 15 13 6 8 3 15 18 25 0 3 15 8 5 8 15 0 17 6 13 24 18
split_gain=1227.99 472.76 460.231 116.908 95.4837 83.2286 60.399 57.5515 57.1805 55.6197 59.5662 45.7733 38.7777 55.9809 65.5275 36.4807 36.3082 34.0973 32.3456 50.6198 37.5319 30.8165 27.5323 26.9699 26.5421 29.233 28.1283 26.495 26.2057 25.1314
threshold=0.039221622284786255 2.2036264999999995 1.8018893194840702 0.82695000000000018 0.49558067635233777 -10.627534357593523 -1.5260986781719674 -0.17583192305780224 6.026981333668437 0.34605667223643699 0.13001599376058504 5.4670617069006608 0.023154876942589952 0.23484177225345149 0.36034058164302024 113.35000000000001 44.600812500000011 0.76679430007533134 0.22483221885828913 0.15716093333844988 0.031404827652252103 1.2896405321660327 0.039632416792722357 0.52972611276337889 -5.3278643862018873 0.0031500000000000005 4.8994099945684146 -0.041378443702370593 0.64899999999999991 80.450000000000017
decision_type=2 2 2 2 2 2 2 2 2 2 2 2 2 2 2 2 2 2 2 2 2 2 2 2 2 2 2 2 2 2
left_child=1 5 4 11 9 15 -6 -3 16 18 -11 22 13 14 -5 -1 -7 -18 -2 -20 -21 -14 -4 -12 25 -9 28 -22 -26 -10
right_child=2 7 3 12 6 8 -8 24 29 10 23 -13 21 -15 -16 -17 17 -19 19 20 27 -23 -24 -25 26 -27 -28 -29 -30 -31
leaf_value=-0.0047634783525978995 0.00049014973035527599 0.0050386805660472701 0.00053489934691117104 0.0019549183900978801 0.0076463646079826574 0.0052776510851096706 -0.007063604373121932 0.010447629171167804 -0.0049099348604044329 -0.007437619631039419 0.0020631286414010612 -0.006374625971900888 -0.0085902599858357614 -0.0050770088745966738 -0.0050392096313165479 0.0040932965450847375 -0.0027628913290147594 0.005064521528281074 -6.30501551140803e-06 -0.0015592786154439203 -0.011747853432840467 -0.0053467132730001558 -0.0041365852075149019 -0.0064164964904843483 0.0038643417689092521 -0.00012174126558371774 -0.0087871638997578244 -0.0043380692787759927 -0.00011348107528310438 0.0054454217813874745
leaf_weight=13039 451680 24751 69470 29983 3076 474263 30158 5137 8357 21461 15940 14603 33525 113397 24213 7229 11146 11115 163959 45297 6801 231964 15416 4905 17236 5334 3638 16614 423351 3257
leaf_count=13039 451680 24751 69470 29983 3076 474263 30158 5137 8357 21461 15940 14603 33525 113397 24213 7229 11146 11115 163959 45297 6801 231964 15416 4905 17236 5334 3638 16614 423351 3257
internal_value=0 0.00261646 -0.00204029 -0.00429436 -0.00046053 0.0046795 -0.00570211 0.000342745 0.00493015 -0.000220804 -0.00373955 -0.00120314 -0.00500448 -0.00381351 -0.00116983 -0.00160453 0.00509239 0.00114536 -3.27816e-06 -0.000961161 -0.00323962 -0.0057563 -0.000313481 6.78031e-05 8.71261e-05 0.00506352 -3.01744e-05 -0.00649028 4.21335e-05 -0.00200591
internal_weight=0 1.00785e+06 1.29246e+06 532571 759891 528406 33234 479447 508138 726657 42306 99489 433082 167593 54196 20268 496524 22261 684351 232671 68712 265489 84886 20845 454696 10471 444225 23415 440587 11614
internal_count=2300315 1007853 1292462 532571 759891 528406 33234 479447 508138 726657 42306 99489 433082 167593 54196 20268 496524 22261 684351 232671 68712 265489 84886 20845 454696 10471 444225 23415 440587 11614
is_linear=0
shrinkage=0.1


Tree=23
num_leaves=31
num_cat=0
split_feature=6 15 3 3 5 9 3 15 2 28 15 1 2 2 1 15 5 15 3 13 5 21 14 8 14 5 14 2 0 10
split_gain=1010.96 429.274 295.816 101.017 99.1976 82.8694 112.756 85.3426 74.3848 64.9976 63.5994 53.8062 51.1084 46.8909 36.8162 36.6324 34.0614 33.9455 39.5395 31.6464 29.372 27.0561 26.4486 26.2804 34.0632 26.1377 31.8025 26.0557 23.8922 39.0249
threshold=-0.23013175455095888 0.21200980875282827 0.44851539541958751 0.13642794476697168 2.8477860416721748 0.0041632523993605014 0.46474018590536598 0.0070652812872581509 1.9574770000000012 2.7379374999999988 0.47203102674361236 0.63183902690146809 11.557522000000004 1.4745349999999926 0.37285361394265254 0.16744771071137785 0.87194893165444931 0.12184349970042196 0.18369353353502885 -0.11923827592462315 0.19164857827102535 22.733000000000008 0.0015945760579455502 0.035393282890057658 0.007662551620452201 0.17861124610147952 0.012037777829933103 5.1452845000000016 2.8797289942679893 4.5871720555555706
decision_type=2 2 2 2 2 2 2 2 2 2 2 2 2 2 2 2 2 2 2 2 2 2 2 2 2 2 2 2 2 2
left_child=2 4 11 10 5 8 14 13 9 -2 -3 28 15 21 23 -4 -15 -16 -19 -11 -5 -8 -6 24 -7 -9 -27 -13 -1 -30
right_child=1 3 12 20 22 6 7 25 -10 19 -12 27 -14 16 17 -17 -18 18 -20 -21 -22 -23 -24 -25 -26 26 -28 -29 29 -31
leaf_value=0.0001072138425956217 0.010061660927558058 0.00082912981191752026 0.0047278905256377853 -0.0006234472078643985 0.0057618830952171109 0.00019424682859091124 0.0064379294308350354 0.00021790050141186278 0.0004789511240103908 0.0047610409756208075 -0.0049907345385982235 0.0079387092809063437 -0.0012001089673724296 -0.00097545579326713749 -0.00091499485262915622 -0.012102221737205753 -0.0079202303158721534 0.0011265351908616671 -0.007585068140975192 -0.00098714037263826623 -0.00491704779814486 -0.0036503026915198182 -0.0053251111277485916 -0.0017683839035650746 0.0034072540896965564 -0.01135463818240373 -0.0056734245668912456 0.0016019564959808533 -0.0078950021563554719 0.0098526208048801897
leaf_weight=305438 15676 60651 450416 16654 2257 386955 10796 4966 203997 23951 27197 13855 15284 26904 104102 1297 9576 7390 17661 15960 367898 3527 46104 59985 36072 14212 32127 12205 1590 5612
leaf_count=305438 15676 60651 450416 16654 2257 386955 10796 4966 203997 23951 27197 13855 15284 26904 104102 1297 9576 7390 17661 15960 367898 3527 46104 59985 36072 14212 32127 12205 1590 5612
internal_value=0 -0.00153919 0.0028553 -0.00403218 -0.000387107 -0.000167585 -0.000723689 -0.00380008 0.0013626 0.00460546 -0.000972651 0.000605343 0.00448713 -0.0008948 -0.000210552 0.00467957 -0.00279846 -0.00171028 -0.00501516 0.0024624 -0.0047311 0.00395373 -0.00480768 0.000190461 0.000468224 -0.00667693 -0.00741583 0.00497094 0.00024145 0.00593444
internal_weight=0 1.49462e+06 805697 472400 1.02222e+06 973857 714273 102108 259584 55587 87848 338700 466997 50803 612165 451713 36480 129153 25051 39911 384552 14323 48361 483012 423027 51305 46339 26060 312640 7202
internal_count=2300315 1494618 805697 472400 1022218 973857 714273 102108 259584 55587 87848 338700 466997 50803 612165 451713 36480 129153 25051 39911 384552 14323 48361 483012 423027 51305 46339 26060 312640 7202
is_linear=0
shrinkage=0.1


Tree=24
num_leaves=31
num_cat=0
split_feature=6 13 15 3 15 27 0 3 8 26 15 2 16 2 20 9 5 7 6 29 2 1 24 2 6 16 2 2 23 8
split_gain=825.488 431.184 225.788 97.776 101.402 62.4629 57.1361 50.7978 62.2408 45.7986 43.7293 37.0261 35.0959 34.0926 33.8872 38.3864 32.4981 30.7353 30.3463 30.0865 40.9429 35.1468 31.4973 28.5038 26.0413 25.4302 25.0201 24.3185 23.9603 23.5048
threshold=1.0621722669294942 -0.20181457723518273 0.18420896913218701 0.49975142083309559 -0.10080248741477195 0.31631250000000005 2.538940738822713 0.16971719493916407 0.022617440653762803 0.10268750000000001 0.039221622284786255 17.849686900000005 1.3408500000000003 4.9722394999999997 6.9179374999999999 -0.016406497255899898 1.3526886190190019 -0.12342080102904578 5.0286678845747135 0.54456249999999951 3.4250140000000004 0.08536968590625521 0.25575000000000003 8.3519304999999964 -0.33028232241044225 0.94875000000000009 19.226280499999998 3.0306845 0.30487499999999984 0.03670672312203236
decision_type=2 2 2 2 2 2 2 2 2 2 2 2 2 2 2 2 2 2 2 2 2 2 2 2 2 2 2 2 2 2
left_child=1 10 3 14 13 17 9 8 18 27 26 -8 -6 -5 15 23 -9 -3 -4 20 -11 -21 -23 -2 -12 -17 -1 -7 -24 -16
right_child=2 5 7 4 12 6 11 16 -10 19 24 -13 -14 -15 29 25 -18 -19 -20 21 -22 22 28 -25 -26 -27 -28 -29 -30 -31
leaf_value=0.0041513177213651567 0.0070551136095992591 0.01163687116290496 0.0020851069107423788 0.0068116306279298452 -0.0038652017929837823 0.0087764004778267818 0.0063906919725498258 -0.0069914270655651936 -0.004207773071786978 0.0084382534967359646 0.004202802356700573 -0.0057388366801114712 -0.0086664679742877223 -0.0034751929260152976 0.00066207069775314461 -0.001353519791479152 -0.0042746092884829749 0.0017688362932578251 -0.0044690265975849035 0.0011666288825121572 -0.00049331028930465256 0.0040173310843028319 0.0049132298169247968 -0.00216039880925493 -0.0092937142454413146 -0.0061621166870408145 -0.00044423155431448684 0.0015157037490929489 -0.00061263823822881632 -0.0019120015942402716
leaf_weight=457625 6537 7018 34193 9879 38407 8765 21290 52711 62557 9691 2237 2854 25223 4781 252761 21763 267308 5736 8904 163748 10911 15417 7935 6898 3961 22234 12162 9738 705805 41266
leaf_count=457625 6537 7018 34193 9879 38407 8765 21290 52711 62557 9691 2237 2854 25223 4781 252761 21763 267308 5736 8904 163748 10911 15417 7935 6898 3961 22234 12162 9738 705805 41266
internal_value=0 0.00145759 -0.00246201 -0.000845078 -0.00404097 0.000246796 0.000154064 -0.00409442 -0.00219321 2.96449e-05 0.00392225 0.00495689 -0.00576843 0.00345684 -0.000133169 -0.00235493 -0.0047221 0.00719881 0.000730999 -7.01207e-05 0.00370802 -0.000157294 -0.000454609 0.00232355 -0.00442251 -0.00378356 0.00403235 0.00495515 -0.000551204 0.000300806
internal_weight=0 1.44489e+06 855422 429749 78290 968908 956154 425673 105654 932010 475985 24144 63630 14660 351459 57432 320019 12754 43097 913507 20602 892905 729157 13435 6198 43997 469787 18503 713740 294027
internal_count=2300315 1444893 855422 429749 78290 968908 956154 425673 105654 932010 475985 24144 63630 14660 351459 57432 320019 12754 43097 913507 20602 892905 729157 13435 6198 43997 469787 18503 713740 294027
is_linear=0
shrinkage=0.1


Tree=25
num_leaves=31
num_cat=0
split_feature=6 15 3 9 3 15 3 15 2 6 21 20 28 1 2 24 2 3 15 9 9 16 17 0 20 23 13 15 2 2
split_gain=672.977 284.926 191.136 73.3079 87.0056 99.4473 70.4432 58.6184 56.173 48.7912 42.2573 42.0955 40.3634 40.0954 35.7897 33.8416 31.7465 29.239 28.2466 26.949 26.8913 22.8788 24.7216 49.43 27.0793 21.9695 21.5043 21.0035 37.0626 34.205
threshold=-0.23013175455095888 0.21200980875282827 0.44851539541958751 -0.066698635644502333 0.33970338260055855 0.05108418699854201 0.16971719493916407 0.44422679518707686 4.6543273370000025 3.6671287149049774 8.5637500000000024 17.803312500000001 7.4531874999999967 0.63183902690146809 11.557522000000004 1.0071249999999992 1.0356032000000022 0.52363124277480666 0.16461707110899429 0.011024729151669002 0.66543397669429605 0.24985000000000004 0.0031500000000000005 -4.6867395546766817 49.946187500000008 12.308000000000002 0.13370507303636872 -0.027432766025723896 3.1584143500000041 5.1452845000000016
decision_type=2 2 2 2 2 2 2 2 2 2 2 2 2 2 2 2 2 2 2 2 2 2 2 2 2 2 2 2 2 2
left_child=2 3 13 8 21 9 7 20 12 10 16 -7 -2 -1 18 -14 -6 -13 27 25 26 22 23 24 -5 -12 -3 28 -4 -29
right_child=1 6 14 4 5 11 -8 -9 -10 -11 19 17 15 -15 -16 -17 -18 -19 -20 -21 -22 -23 -24 -25 -26 -27 -28 29 -30 -31
leaf_value=0.00020692976958855002 0.0078451993033725863 -0.0005769626938736998 0.0034770808192811824 0.0066456707313770061 0.0068224703719061757 -0.0060210714706353244 -0.0040613615701457851 -0.0040957675121975111 0.0002938094763851708 -0.0074135898426518536 0.0056797587056649952 -0.00046966014675154977 0.0088813314072657377 0.0042896126092398 -0.0011178820767629774 0.0002839103812249674 0.00088968468489440504 -0.0056034119645795551 -0.010733028629267923 -0.0022523327897531809 -0.0057316022074949888 -0.00011147520397619279 -0.00091795741561516593 0.0007408952267067264 0.018771917700422233 -0.00035913194613043637 0.0028064311424608177 0.0075195337970364977 0.0087751992872613458 -0.0016636984388016683
leaf_weight=312640 21235 48016 402883 5526 11561 65268 336882 49670 83003 9763 8182 33542 5771 26060 15284 22155 41027 16577 1333 77787 6974 570023 12608 12584 2762 22844 30858 29134 13651 4712
leaf_count=312640 21235 48016 402883 5526 11561 65268 336882 49670 83003 9763 8182 33542 5771 26060 15284 22155 41027 16577 1333 77787 6974 570023 12608 12584 2762 22844 30858 29134 13651 4712
internal_value=0 -0.00125582 0.00232962 -0.000317212 -0.000643538 -0.00207838 -0.00328686 -0.00136153 0.00188042 -0.000548817 -0.000133573 -0.00434732 0.00455924 0.000521056 0.00364133 0.0020606 0.00219395 -0.00216766 0.00380236 -0.00125844 0.00022045 3.77436e-05 0.00257831 0.00469028 0.0106868 0.00123341 0.000746728 0.00384538 0.00365072 0.00624106
internal_weight=0 1.49462e+06 805697 1.02222e+06 890054 286551 472400 135518 132164 171164 161401 115387 49161 338700 466997 27926 52588 50119 451713 108813 85848 603503 33480 20872 8288 31026 78874 450380 416534 33846
internal_count=2300315 1494618 805697 1022218 890054 286551 472400 135518 132164 171164 161401 115387 49161 338700 466997 27926 52588 50119 451713 108813 85848 603503 33480 20872 8288 31026 78874 450380 416534 33846
is_linear=0
shrinkage=0.1


Tree=26
num_leaves=31
num_cat=0
split_feature=6 13 16 6 7 2 8 15 28 16 8 15 13 15 3 9 19 19 0 1 12 15 5 1 10 21 23 20 9 6
split_gain=553.578 297.302 143.964 83.817 48.7991 64.363 41.5966 38.334 36.8894 32.0218 30.3594 34.4373 28.7832 48.2082 26.8275 29.1306 26.3546 26.2916 24.3999 25.47 24.2642 23.0358 22.8366 22.5282 21.5511 21.2268 21.1534 23.7714 23.755 20.0114
threshold=1.2533317330697145 -0.20181457723518273 1.07345 4.8994099945684146 -0.25314874517292368 3.8553210000000075 0.036357710034308155 0.039221622284786255 4.268374999999998 0.71205000000000018 0.029088714287491105 0.074466262060477864 0.18020599417598962 0.36034058164302024 0.45231635923576641 -0.026804731658264996 -9.0216153002430541 0.93462323535665093 2.8797289942679893 0.065474071653498819 0.39162384999999117 -0.013966699425054348 0.78864254191015903 0.23783364593962197 3.656092111111112 4.6875624999999994 28.248875000000009 71.979062500000012 0.024952058374832855 -1.7674846587088175
decision_type=2 2 2 2 2 2 2 2 2 2 2 2 2 2 2 2 2 2 2 2 2 2 2 2 2 2 2 2 2 2
left_child=1 7 3 6 5 8 22 26 21 -8 11 14 13 18 -4 -16 -10 -18 19 20 -6 -3 -2 -13 -20 -21 27 -1 -28 -9
right_child=2 4 10 -5 12 -7 9 29 16 -11 -12 23 -14 -15 15 -17 17 -19 24 25 -22 -23 -24 -25 -26 -27 28 -29 -30 -31
leaf_value=0.0035122423212538426 -0.00034599753174187017 0.0049153846135536758 0.0020391227195694049 -0.0036207767945445842 0.0040135309373681566 0.0002370731638150795 0.00041752199992953394 0.0095007037874781479 -0.0047280059433990338 -0.0041584588446535167 -0.0045336689386162917 -0.0019688841793291971 0.004079140693941787 -0.0049554739640099866 0.0026396151054224187 -0.0050858822696576034 0.0057195650704869195 -0.0025297299526372361 -0.0049792414567562705 0.0010638611662282455 0.00050918485222573235 0.011501505717166698 0.0015437458242414678 -0.0043468557356128399 0.0062775251687516125 -0.00056035796432260434 0.0026923080477253818 -0.057919017692643508 -0.0022222111013544704 -0.0064278845318356606
leaf_weight=427557 151536 11335 23530 85760 24433 77373 24973 911 4333 39450 168941 65682 16215 20582 6990 16176 16715 5025 2044 92268 103273 9992 110636 101257 10128 628884 34642 63 13735 5876
leaf_count=427557 151536 11335 23530 85760 24433 77373 24973 911 4333 39450 168941 65682 16215 20582 6990 16176 16715 5025 2044 92268 103273 9992 110636 101257 10128 628884 34642 63 13735 5876
internal_value=0 0.00112729 -0.00213479 -0.000838548 0.000161691 0.00201475 -0.000107967 0.00317257 0.00491652 -0.00238462 -0.00353193 -0.00273976 -9.58328e-05 -0.000172621 -0.000339167 -0.00275483 0.00239344 0.00381282 -5.82918e-05 -0.000122037 0.00117964 0.00800108 0.00045147 -0.00341124 0.00438722 -0.000352547 0.00327897 0.00350319 0.001297 -0.00428983
internal_weight=0 1.50538e+06 794931 412355 1.0226e+06 124773 326595 482784 47400 64423 382576 213635 897827 881612 46696 23166 26073 21740 861030 848858 127706 21327 262172 166939 12172 721152 475997 427620 48377 6787
internal_count=2300315 1505384 794931 412355 1022600 124773 326595 482784 47400 64423 382576 213635 897827 881612 46696 23166 26073 21740 861030 848858 127706 21327 262172 166939 12172 721152 475997 427620 48377 6787
is_linear=0
shrinkage=0.1


Tree=27
num_leaves=31
num_cat=0
split_feature=6 15 3 3 15 9 3 15 27 15 5 24 20 2 1 0 2 16 8 0 23 17 14 18 21 7 8 20 3 24
split_gain=455.625 175.652 167.894 78.906 57.8598 49.0608 73.5179 47.4694 41.396 38.3769 35.1387 30.9196 28.5892 35.7846 28.5108 25.4593 28.3074 23.9649 23.4992 22.3557 34.3224 22.6713 21.8664 21.7302 20.5847 19.9824 19.3614 18.743 19.3669 20.2246
threshold=1.0000000180025095e-35 0.16461707110899429 0.44851539541958751 0.16971719493916407 0.39713933829606224 0.0041632523993605014 0.46474018590536598 -0.13841930571145447 0.31631250000000005 0.15239743781515377 0.50571229331696788 1.0071249999999992 1.7569999999999999 5.6761279400000015 0.37285361394265254 2.538940738822713 17.849686900000005 1.1957500000000001 0.015037679093430052 -5.3278643862018873 34.144000000000013 0.00085000000000000017 0.0099828482614293026 1.0000000180025095e-35 4.0593124999999999 -0.055386482811508896 0.033612447254086956 1.1235000000000002 0.18534443764096428 2.7469999999999977
decision_type=2 2 2 2 2 2 2 2 2 2 2 2 2 2 2 2 2 2 2 2 2 2 2 2 2 2 2 2 2 2
left_child=2 5 15 4 18 8 14 -8 -2 -4 -9 -10 13 -13 22 19 -17 -12 -3 20 -1 23 -7 -22 -21 -16 -24 -26 29 -29
right_child=1 3 9 -5 -6 6 7 10 11 -11 17 12 -14 -15 25 16 -18 -19 -20 24 21 -23 26 -25 27 -27 -28 28 -30 -31
leaf_value=-0.00075134570860006409 0.010248682867067795 0.0024562248391966153 0.002960313395179397 -0.0034181684875997731 -0.0033782025289716359 8.0620333870180807e-05 0.0032749485236804724 -0.00097633419911489518 0.0054513155026300573 -0.0067243548060468951 -0.0027479500885165794 0.0074039794750765777 7.8090007852332018e-05 -0.0020645211573919915 -0.00091244537753265369 0.0065608778692321044 -0.005032157266800192 -0.0069121842856911947 -0.00059127631533403618 0.0020799580363670481 0.029401743228052869 0.0024917160794669471 0.0061722907662278333 0.010760095991233331 0.0034050340600582812 -0.0043259284656236201 -0.0020381675066933869 -0.0053588498521926365 -0.0008082221964388084 0.00065531221146748037
leaf_weight=5290 4860 40897 491779 381668 56727 317954 9979 26361 13790 4126 21985 12122 151289 5951 75614 11797 2564 37211 66357 49162 891 1966 10913 2097 15022 22180 3898 5743 238135 211987
leaf_count=5290 4860 40897 491779 381668 56727 317954 9979 26361 13790 4126 21985 12122 151289 5951 75614 11797 2564 37211 66357 49162 891 1966 10913 2097 15022 22180 3898 5743 238135 211987
internal_value=0 -0.00127909 0.00154853 -0.00262994 -0.000795326 -0.000246901 -0.000742404 -0.00325196 0.00113962 0.00287974 -0.00401323 0.000897904 0.00052715 0.00428623 -0.000185563 0.000336475 0.00449107 -0.00536562 0.000570766 0.000223963 0.00485015 0.0108316 0.000255577 0.0163189 0.000132836 -0.00168663 0.00401144 -7.04495e-05 -0.000184976 0.000496678
internal_weight=0 1.25976e+06 1.04056e+06 545649 163981 714107 526095 95536 188012 495905 85557 183152 169362 18073 430559 544654 14361 59196 107254 530293 10244 4954 332765 2988 520049 97794 14811 470887 455865 217730
internal_count=2300315 1259756 1040559 545649 163981 714107 526095 95536 188012 495905 85557 183152 169362 18073 430559 544654 14361 59196 107254 530293 10244 4954 332765 2988 520049 97794 14811 470887 455865 217730
is_linear=0
shrinkage=0.1


Tree=28
num_leaves=31
num_cat=0
split_feature=6 15 3 3 15 9 3 16 2 15 21 26 15 5 1 27 8 16 28 21 14 23 25 14 3 9 7 19 20 2
split_gain=371.727 149.274 113.425 70.485 47.7499 41.3552 58.5025 40.684 36.9935 28.7962 26.9903 25.464 24.3778 24.1835 23.5495 20.1591 20.1019 19.8794 20.4657 19.1936 18.014 17.9126 21.3963 17.3828 22.5793 21.1799 17.1569 16.7008 16.6261 23.2298
threshold=-0.0094787439545434993 0.16461707110899429 0.44851539541958751 0.17657390467427722 0.39713933829606224 0.0041632523993605014 0.46474018590536598 0.93855000000000011 1.1025634999999927 0.11817353992382916 40.949750000000016 0.34293750000000006 -0.20189251702299307 0.31575167542800803 0.37285361394265254 0.18881250000000002 0.0146063047107581 0.98155000000000014 14.381374999999997 8.5637500000000024 0.0099828482614293026 0.26218749999999985 0.4741874999999996 0.010965307433342753 0.24772842748537507 0.5142069402714381 0.12950845694299631 -41549.360185974154 11.083500000000003 1.2913004999999986
decision_type=2 2 2 2 2 2 2 2 2 2 2 2 2 2 2 2 2 2 2 2 2 2 2 2 2 2 2 2 2 2
left_child=2 5 11 4 16 8 14 -8 10 26 -2 -1 -9 -14 20 -13 -3 19 -19 -16 -7 22 -17 24 25 -5 -4 -18 29 -15
right_child=1 3 9 23 -6 6 7 12 -10 -11 -12 15 13 28 17 21 27 18 -20 -21 -22 -23 -24 -25 -26 -27 -28 -29 -30 -31
leaf_value=0.0041283694448615085 0.0051717034587978293 0.0021894637071820026 0.0027273328328960775 -0.0013213407054466686 -0.0029428461815129161 5.2435245015980929e-05 0.0013434993856753224 0.0051390657483609001 0.0004235108114232664 -0.0043362826739143682 -0.0030345802866881752 0.0073697231332132997 -0.00041834317164618148 -0.0015105477292912412 0.0023087038152975518 0.044802967118936901 0.0029830537643259557 -0.0056514673782374842 -0.0010730749586178743 -0.0014808073522770912 0.0035214550114783987 0.00012167060378851813 0.0059359406538318071 -0.0027916706936088106 -0.0064094226141624177 -0.0080029729652041984 -0.0047590597294795752 -0.0011353778067825491 -0.0034306605370956417 -0.0081351055272291858
leaf_weight=17532 28640 43353 476719 24250 62370 351973 18782 2924 200024 5923 4660 3931 14119 6800 18371 149 11617 18869 20232 49056 15634 427009 2866 311003 33176 5898 3081 64598 32865 23891
leaf_count=17532 28640 43353 476719 24250 62370 351973 18782 2924 200024 5923 4660 3931 14119 6800 18371 149 11617 18869 20232 49056 15634 427009 2866 311003 33176 5898 3081 64598 32865 23891
internal_value=0 -0.00105408 0.00153308 -0.00231439 -0.000699769 -0.000185168 -0.000641812 -0.00284785 0.000937275 0.00259371 0.00402332 0.000392019 -0.00382457 -0.00416199 -0.000179415 0.000241068 0.000470283 -0.0014886 -0.00328247 -0.000448326 0.00019997 0.000175903 0.00785673 -0.00309916 -0.00460936 -0.0026285 0.00267926 -0.00050763 -0.00499365 -0.00666735
internal_weight=0 1.3631e+06 937210 556265 181938 806840 573516 99381 233324 485723 33300 451487 80599 77675 474135 433955 119568 106528 39101 67427 367607 430024 3015 374327 63324 30148 479800 76215 63556 30691
internal_count=2300315 1363105 937210 556265 181938 806840 573516 99381 233324 485723 33300 451487 80599 77675 474135 433955 119568 106528 39101 67427 367607 430024 3015 374327 63324 30148 479800 76215 63556 30691
is_linear=0
shrinkage=0.1


Tree=29
num_leaves=31
num_cat=0
split_feature=15 3 0 15 24 20 2 2 5 27 6 14 13 15 1 2 29 24 5 1 14 8 3 9 9 13 25 20 5 15
split_gain=305.09 149.626 132.915 87.8438 57.8078 49.0044 38.2988 30.16 29.2902 28.3614 26.6415 27.0109 25.0553 25.3369 51.5634 29.6609 51.3189 32.0337 23.6871 29.7487 25.9082 22.9468 22.926 22.5136 21.9321 21.5251 20.4309 23.0511 20.2529 21.8103
threshold=0.070093537349545362 0.24331994939141482 0.39675344389819839 0.39713933829606224 0.13518750000000004 1.7569999999999999 3.5667075000000006 14.561326999999997 0.43251226804121151 0.18881250000000002 5.3081385910964922 0.020833190321488854 -0.37958656800132223 -0.032297420297010895 0.63183902690146809 3.1584143500000041 3.6750624999999988 1.2469374999999994 1.3526886190190019 0.34378959228622757 0.0060399294156714004 0.032777385797893958 0.73395771040422353 0.39066679312385505 0.022599418589026452 0.18020599417598962 1.2314999999999985 25.806125000000005 1.2896405321660327 0.29404232916232204
decision_type=2 2 2 2 2 2 2 2 2 2 2 2 2 2 2 2 2 2 2 2 2 2 2 2 2 2 2 2 2 2
left_child=2 3 4 10 -1 6 -6 -4 -3 -7 11 25 -11 14 15 16 -14 -18 19 23 -20 -8 -19 -10 -21 28 -15 -28 -2 -30
right_child=1 8 7 -5 5 9 21 -9 18 12 -12 -13 13 26 -16 -17 17 22 20 24 -22 -23 -24 -25 -26 -27 27 -29 29 -31
leaf_value=0.0065096370813931522 0.00010962918368187437 -0.0011332137679413207 0.0025861117921870446 -0.002629989474677883 0.0051138524351639859 0.0056804628550922174 0.0016885965347664554 -0.0013169355112967536 -0.00073732475492257956 0.0039113123761122925 -0.0042042819800159432 0.0077213757165297964 0.0023466112210230295 0.0051299969992760833 0.0019683942618167259 -0.0014305189574096891 0.0022757742150826439 -0.009287573297503366 -0.0075313723826708825 -0.0027385814280244357 -0.0022722071429953894 -0.0050287422874095876 0.0044043181518522599 -0.0048452277793162597 -0.0073550783630608463 0.0041569887712393063 -0.00072687595869695698 0.00069007643701284656 0.0040424564882245708 -0.0016702819168309567
leaf_weight=14488 448951 110719 450584 120613 33411 8298 21764 20708 28923 14462 12441 5099 7425 7848 35318 89491 3172 20628 9741 14475 244018 6636 1300 24765 35602 14844 228747 230502 26393 8949
leaf_count=14488 448951 110719 450584 120613 33411 8298 21764 20708 28923 14462 12441 5099 7425 7848 35318 89491 3172 20628 9741 14475 244018 6636 1300 24765 35602 14844 228747 230502 26393 8949
internal_value=0 -0.00119723 0.0011078 -0.000200027 0.000256522 0.000128743 0.0028189 0.00241462 -0.00255445 -0.000128184 0.000367223 0.000480015 -0.000203627 -0.00029893 -0.00139649 -0.00237047 -0.00495668 -0.00711712 -0.00299459 -0.00426747 -0.00247409 0.00011901 -0.00847585 -0.0026322 -0.00602066 0.00040604 7.07637e-05 -1.56923e-05 0.00029107 0.00259593
internal_weight=0 1.10553e+06 1.19478e+06 637290 723490 709002 61811 471292 468243 647191 516677 504236 638893 624431 157334 122016 32525 25100 357524 103765 253759 28400 21928 53688 50077 499137 467097 459249 484293 35342
internal_count=2300315 1105533 1194782 637290 723490 709002 61811 471292 468243 647191 516677 504236 638893 624431 157334 122016 32525 25100 357524 103765 253759 28400 21928 53688 50077 499137 467097 459249 484293 35342
is_linear=0
shrinkage=0.1


Tree=30
num_leaves=31
num_cat=0
split_feature=6 13 16 6 8 1 2 9 15 1 27 16 15 26 5 15 2 0 29 3 15 17 24 23 2 9 9 3 21 10
split_gain=254.165 111.908 87.1062 44.4565 33.8118 33.2738 44.92 28.2517 27.6447 26.789 23.1641 22.7418 21.6062 21.3132 20.3991 31.4542 20.3224 27.041 22.807 24.5602 36.2215 22.2147 20.756 22.0351 20.1135 19.6344 19.4509 19.0741 23.6875 23.8304
threshold=0.7842118045666131 -0.20181457723518273 1.0684500000000001 5.3081385910964922 0.029837210954111053 0.73178541142677511 7.734092550000006 0.47840213330114456 0.074466262060477864 0.20026019730827802 0.31631250000000005 0.69415000000000016 0.38248660834534282 0.39124999999999993 1.3526886190190019 0.0086907381444101019 21.627417000000005 2.538940738822713 0.36781249999999982 0.29897896240382299 0.12184349970042196 0.056750000000000009 0.55856250000000018 0.48743749999999969 3.8553210000000075 0.48430457633821228 0.19038494478902249 0.44851539541958751 31.558125000000015 14.728163555555565
decision_type=2 2 2 2 2 2 2 2 2 2 2 2 2 2 2 2 2 2 2 2 2 2 2 2 2 2 2 2 2 2
left_child=1 -1 3 7 8 10 -7 -2 27 12 26 -9 25 24 -6 -16 17 18 -15 -20 22 -22 -21 -24 -12 -10 -3 -4 29 -29
right_child=2 5 4 -5 14 6 -8 11 9 -11 13 -13 -14 16 15 -17 -18 -19 19 20 21 -23 23 -25 -26 -27 -28 28 -30 -31
leaf_value=0.0021371282853025766 0.00033812908770819677 0.0083130331187348579 0.0019383479450687628 -0.0025993697082204283 -0.0052197745782881543 0.0053631521980194293 -0.0016580595958677166 0.00059809897913312747 0.0023349844881425 -0.0029727712312822949 0.0054005321721153493 -0.0035522526458904129 -0.002616777810299301 0.0043987975484223668 -0.011567045863716555 -0.0024777868218996569 0.00044810029521765398 0.0038121001599741634 -0.00023964002708307358 0.0036929610831821415 -0.0030373844371679197 -0.0091242829191202687 0.0063270780285995393 -0.0017768490367348422 0.00044998539894199161 -0.003690363704573962 -0.0010756754365006283 -0.0023886605899112044 -0.0062446096492295294 0.003809893514642114
leaf_weight=465144 377357 6190 32474 75854 43567 27166 13711 20708 28370 130190 13945 36426 26032 8556 3919 133625 386852 13682 255070 8302 16302 9484 3472 99769 19945 6682 3429 16092 7908 10092
leaf_count=465144 377357 6190 32474 75854 43567 27166 13711 20708 28370 130190 13945 36426 26032 8556 3919 133625 386852 13682 255070 8302 16302 9484 3472 99769 19945 6682 3429 16092 7908 10092
internal_value=0 0.000881118 -0.00125399 -0.000365608 -0.00228686 0.000221628 0.00300809 2.43652e-05 -0.00155129 -0.00216214 8.68325e-05 -0.00204797 -0.000434409 3.06497e-05 -0.00333406 -0.00273676 -7.32153e-05 -0.000559597 -0.000708775 -0.000820142 -0.00189835 -0.00527612 -0.00111749 -0.00150431 0.00248703 0.00118637 0.00496613 0.000203928 -0.00144818 4.24654e-07
internal_weight=0 1.35102e+06 949296 510345 438951 885875 40877 434491 257840 191274 844998 57134 61084 835379 181111 137544 801489 414637 400955 392399 137329 25786 111543 103241 33890 35052 9619 66566 34092 26184
internal_count=2300315 1351019 949296 510345 438951 885875 40877 434491 257840 191274 844998 57134 61084 835379 181111 137544 801489 414637 400955 392399 137329 25786 111543 103241 33890 35052 9619 66566 34092 26184
is_linear=0
shrinkage=0.1


Tree=31
num_leaves=31
num_cat=0
split_feature=6 8 9 6 18 15 16 10 9 15 13 7 1 15 10 20 14 15 6 3 25 2 15 31 10 5 6 15 13 1
